{"learner":{"attributes":{"scikit_learn":"{\"_estimator_type\": \"classifier\"}"},"feature_names":["duration","credit_amount","installment_rate","residence_since","age","existing_credits","num_dependents","status_a12","status_a13","status_a14","credit_history_a31","credit_history_a32","credit_history_a33","credit_history_a34","purpose_a41","purpose_a410","purpose_a42","purpose_a43","purpose_a44","purpose_a45","purpose_a46","purpose_a48","purpose_a49","savings_a62","savings_a63","savings_a64","savings_a65","employment_a72","employment_a73","employment_a74","employment_a75","personal_status_a92","personal_status_a93","personal_status_a94","other_debtors_a102","other_debtors_a103","property_a122","property_a123","property_a124","other_installments_a142","other_installments_a143","housing_a152","housing_a153","job_a172","job_a173","job_a174","telephone_a192","foreign_worker_a202"],"feature_types":["int","int","int","int","int","int","int","int","int","int","int","int","int","int","int","int","int","int","int","int","int","int","int","int","int","int","int","int","int","int","int","int","int","int","int","int","int","int","int","int","int","int","int","int","int","int","int","int"],"gradient_booster":{"model":{"cats":{"enc":[],"feature_segments":[],"sorted_idx":[]},"gbtree_model_param":{"num_parallel_tree":"1","num_trees":"100"},"iteration_indptr":[0,1,2,3,4,5,6,7,8,9,10,11,12,13,14,15,16,17,18,19,20,21,22,23,24,25,26,27,28,29,30,31,32,33,34,35,36,37,38,39,40,41,42,43,44,45,46,47,48,49,50,51,52,53,54,55,56,57,58,59,60,61,62,63,64,65,66,67,68,69,70,71,72,73,74,75,76,77,78,79,80,81,82,83,84,85,86,87,88,89,90,91,92,93,94,95,96,97,98,99,100],"tree_info":[0,0,0,0,0,0,0,0,0,0,0,0,0,0,0,0,0,0,0,0,0,0,0,0,0,0,0,0,0,0,0,0,0,0,0,0,0,0,0,0,0,0,0,0,0,0,0,0,0,0,0,0,0,0,0,0,0,0,0,0,0,0,0,0,0,0,0,0,0,0,0,0,0,0,0,0,0,0,0,0,0,0,0,0,0,0,0,0,0,0,0,0,0,0,0,0,0,0,0,0],"trees":[{"base_weights":[-5.638277E-8,5.641936E-1,-8.616011E-1,-1.1702805E-2,9.0045714E-1,2.0637892E-1,-1.0750507E0,2.307692E-1,-1.0522025E-1,3.2896888E-1,-8.017819E-2,1.4036995E-1,-2.5506073E-1,-3.507378E-1,-7.200001E-2],"categories":[],"categories_nodes":[],"categories_segments":[],"categories_sizes":[],"default_left":[0,0,0,0,0,0,0,0,0,0,0,0,0,0,0],"id":0,"left_children":[1,3,5,7,9,11,13,-1,-1,-1,-1,-1,-1,-1,-1],"loss_changes":[7.2430374E1,1.7447054E1,1.366238E1,9.319324E0,1.3313793E1,3.3433607E0,3.5923042E0,0E0,0E0,0E0,0E0,0E0,0E0,0E0,0E0],"parents":[2147483647,0,0,1,1,2,2,3,3,4,4,5,5,6,6],"right_children":[2,4,6,8,10,12,14,-1,-1,-1,-1,-1,-1,-1,-1],"split_conditions":[1E0,1.5E1,1E0,9.75E2,1E0,1E0,1E0,2.307692E-1,-1.0522025E-1,3.2896888E-1,-8.017819E-2,1.4036995E-1,-2.5506073E-1,-3.507378E-1,-7.200001E-2],"split_indices":[9,0,40,1,26,29,12,0,0,0,0,0,0,0,0],"split_type":[0,0,0,0,0,0,0,0,0,0,0,0,0,0,0],"sum_hessian":[1.47E2,8.904E1,5.7960003E1,3.318E1,5.586E1,9.660001E0,4.8300003E1,9.660001E0,2.352E1,4.788E1,7.9800005E0,8.190001E0,1.47E0,4.3050003E1,5.25E0],"tree_param":{"num_deleted":"0","num_feature":"48","num_nodes":"15","size_leaf_vector":"1"}},{"base_weights":[-1.6731635E-2,3.6648017E-1,-7.0952266E-1,1.7748667E-1,1.1336979E0,1.2563929E-1,-9.0726626E-1,-1.9103457E-1,1.0650695E-1,4.2077267E-1,6.777752E-2,1.5298516E-1,-1.9214574E-1,-3.0013812E-1,-5.5493303E-2],"categories":[],"categories_nodes":[],"categories_segments":[],"categories_sizes":[],"default_left":[0,0,0,0,0,0,0,0,0,0,0,0,0,0,0],"id":1,"left_children":[1,3,5,7,9,11,13,-1,-1,-1,-1,-1,-1,-1,-1],"loss_changes":[3.9171005E1,1.3577522E1,8.790678E0,1.1419561E1,4.2220745E0,3.5466912E0,2.6826324E0,0E0,0E0,0E0,0E0,0E0,0E0,0E0,0E0],"parents":[2147483647,0,0,1,1,2,2,3,3,4,4,5,5,6,6],"right_children":[2,4,6,8,10,12,14,-1,-1,-1,-1,-1,-1,-1,-1],"split_conditions":[1E0,1E0,1E0,1.2E1,1E0,1E0,1E0,-1.9103457E-1,1.0650695E-1,4.2077267E-1,6.777752E-2,1.5298516E-1,-1.9214574E-1,-3.0013812E-1,-5.5493303E-2],"split_indices":[9,38,40,0,13,17,12,0,0,0,0,0,0,0,0],"split_type":[0,0,0,0,0,0,0,0,0,0,0,0,0,0,0],"sum_hessian":[1.4556525E2,9.4026344E1,5.153891E1,7.643017E1,1.759618E1,9.936624E0,4.1602287E1,1.321822E1,6.3211945E1,1.3154741E1,4.441439E0,6.839901E0,3.0967221E0,3.6506824E1,5.0954604E0],"tree_param":{"num_deleted":"0","num_feature":"48","num_nodes":"15","size_leaf_vector":"1"}},{"base_weights":[-2.2039637E-2,2.496539E-1,-5.8777666E-1,-6.3798696E-1,3.2993972E-1,7.886044E-2,-7.73623E-1,1.2599295E-1,-2.7335244E-1,1.8445109E-3,1.5668337E-1,-9.2860624E-2,1.9388068E-1,-2.615753E-1,2.1652596E-2],"categories":[],"categories_nodes":[],"categories_segments":[],"categories_sizes":[],"default_left":[0,0,0,0,0,0,0,0,0,0,0,0,0,0,0],"id":2,"left_children":[1,3,5,7,9,11,13,-1,-1,-1,-1,-1,-1,-1,-1],"loss_changes":[2.2112856E1,7.14072E0,5.8421936E0,2.8125E0,5.5917196E0,2.6419122E0,3.1043282E0,0E0,0E0,0E0,0E0,0E0,0E0,0E0,0E0],"parents":[2147483647,0,0,1,1,2,2,3,3,4,4,5,5,6,6],"right_children":[2,4,6,8,10,12,14,-1,-1,-1,-1,-1,-1,-1,-1],"split_conditions":[1E0,9E0,1E0,1E0,3E0,3.59E3,1E0,1.2599295E-1,-2.7335244E-1,1.8445109E-3,1.5668337E-1,-9.2860624E-2,1.9388068E-1,-2.615753E-1,2.1652596E-2],"split_indices":[9,0,40,41,2,1,27,0,0,0,0,0,0,0,0],"split_type":[0,0,0,0,0,0,0,0,0,0,0,0,0,0,0],"sum_hessian":[1.4190892E2,9.624585E1,4.5663074E1,7.4070454E0,8.8838806E1,1.0080314E1,3.558276E1,1.4098519E0,5.9971933E0,3.3490776E1,5.534803E1,6.253925E0,3.8263886E0,3.185038E1,3.7323813E0],"tree_param":{"num_deleted":"0","num_feature":"48","num_nodes":"15","size_leaf_vector":"1"}},{"base_weights":[-2.3549447E-2,1.7009017E-1,-4.798379E-1,4.855184E-2,6.3971317E-1,-6.8177456E-1,8.132111E-2,7.6272406E-2,-9.187307E-2,2.4481128E-1,-7.7157885E-2,-2.4328542E-1,-4.8511453E-2,-8.34959E-2,4.669607E-1],"categories":[],"categories_nodes":[],"categories_segments":[],"categories_sizes":[],"default_left":[0,0,0,0,0,0,0,0,0,0,0,0,0,0,0],"id":3,"left_children":[1,3,5,7,9,11,13,-1,-1,-1,-1,-1,-1,-1,-1],"loss_changes":[1.2379358E1,5.5884385E0,4.784276E0,5.8646264E0,3.3980083E0,1.9376316E0,6.7660823E0,0E0,0E0,0E0,0E0,0E0,0E0,0E0,0E0],"parents":[2147483647,0,0,1,1,2,2,3,3,4,4,5,5,6,6],"right_children":[2,4,6,8,10,12,14,-1,-1,-1,-1,-1,-1,-1,-1],"split_conditions":[1E0,1E0,3.878E3,3.5E1,1E0,1E0,1E0,7.6272406E-2,-9.187307E-2,2.4481128E-1,-7.7157885E-2,-2.4328542E-1,-4.8511453E-2,-8.34959E-2,4.669607E-1],"split_indices":[9,38,1,4,26,43,27,0,0,0,0,0,0,0,0],"split_type":[0,0,0,0,0,0,0,0,0,0,0,0,0,0,0],"sum_hessian":[1.3818478E2,9.7454346E1,4.073043E1,7.8295E1,1.9159346E1,2.979395E1,1.0936482E1,4.974132E1,2.855368E1,1.6086946E1,3.0723984E0,2.341799E1,6.375958E0,9.445188E0,1.4912947E0],"tree_param":{"num_deleted":"0","num_feature":"48","num_nodes":"15","size_leaf_vector":"1"}},{"base_weights":[-1.9640744E-2,1.3154314E-1,-4.3978325E-1,-1.640698E-1,3.2197908E-1,6.3535154E-2,-8.440086E-1,1.6222462E-1,-1.0105592E-1,1.5964073E-1,-5.011776E-2,1.5512426E-1,-1.2981248E-1,-2.8656876E-1,-4.0609993E-2],"categories":[],"categories_nodes":[],"categories_segments":[],"categories_sizes":[],"default_left":[0,0,0,0,0,0,0,0,0,0,0,0,0,0,0],"id":4,"left_children":[1,3,5,7,9,11,13,-1,-1,-1,-1,-1,-1,-1,-1],"loss_changes":[8.662822E0,5.704471E0,7.3939495E0,5.052989E0,6.3988523E0,4.0498266E0,1.453228E0,0E0,0E0,0E0,0E0,0E0,0E0,0E0,0E0],"parents":[2147483647,0,0,1,1,2,2,3,3,4,4,5,5,6,6],"right_children":[2,4,6,8,10,12,14,-1,-1,-1,-1,-1,-1,-1,-1],"split_conditions":[1E0,3E0,3.5E1,2E0,1E0,1E0,6.07E3,1.6222462E-1,-1.0105592E-1,1.5964073E-1,-5.011776E-2,1.5512426E-1,-1.2981248E-1,-2.8656876E-1,-4.0609993E-2],"split_indices":[13,2,4,3,17,32,1,0,0,0,0,0,0,0,0],"split_type":[0,0,0,0,0,0,0,0,0,0,0,0,0,0,0],"sum_hessian":[1.344713E2,9.939277E1,3.5078537E1,3.899674E1,6.0396027E1,1.5999588E1,1.907895E1,7.2584376E0,3.17383E1,4.2181187E1,1.8214838E1,8.337485E0,7.6621027E0,1.6189981E1,2.8889694E0],"tree_param":{"num_deleted":"0","num_feature":"48","num_nodes":"15","size_leaf_vector":"1"}},{"base_weights":[-1.9305067E-2,1.1268654E-1,-3.6662042E-1,6.138479E-2,9.191495E-1,-2.0687135E-1,-3.0937448E-1,-2.4432802E-1,3.8600784E-2,3.6226648E-1,1.240987E-2,-1.3707237E-1,9.327488E-2],"categories":[],"categories_nodes":[],"categories_segments":[],"categories_sizes":[],"default_left":[0,0,0,0,0,0,0,0,0,0,0,0,0],"id":5,"left_children":[1,3,5,7,9,11,-1,-1,-1,-1,-1,-1,-1],"loss_changes":[6.162619E0,3.9783633E0,3.7157454E0,5.57107E0,1.4085155E0,4.166635E0,0E0,0E0,0E0,0E0,0E0,0E0,0E0],"parents":[2147483647,0,0,1,1,2,2,3,3,4,4,5,5],"right_children":[2,4,6,8,10,12,-1,-1,-1,-1,-1,-1,-1],"split_conditions":[1E0,1E0,1E0,9E0,1E0,3.62E3,-3.0937448E-1,-2.4432802E-1,3.8600784E-2,3.6226648E-1,1.240987E-2,-1.3707237E-1,9.327488E-2],"split_indices":[9,20,29,0,42,1,0,0,0,0,0,0,0],"split_type":[0,0,0,0,0,0,0,0,0,0,0,0,0],"sum_hessian":[1.3252843E2,9.6522255E1,3.6006176E1,9.176115E1,4.7611103E0,3.0086002E1,5.920174E0,5.754409E0,8.600674E1,3.300882E0,1.4602283E0,2.0367996E1,9.718006E0],"tree_param":{"num_deleted":"0","num_feature":"48","num_nodes":"13","size_leaf_vector":"1"}},{"base_weights":[-1.8669158E-2,6.261139E-2,-4.4849586E-1,-8.382388E-3,9.697096E-1,9.26148E-2,-8.189014E-1,-1.9271133E-2,2.6616263E-1,4.1399905E-1,1.246567E-1,-1.1384631E-1,1.7614289E-1,-7.409122E-2,-2.895846E-1],"categories":[],"categories_nodes":[],"categories_segments":[],"categories_sizes":[],"default_left":[0,0,0,0,0,0,0,0,0,0,0,0,0,0,0],"id":6,"left_children":[1,3,5,7,9,11,13,-1,-1,-1,-1,-1,-1,-1,-1],"loss_changes":[4.599951E0,7.151758E0,4.2715087E0,5.2528086E0,1.2592807E0,2.4185534E0,8.1047535E-1,0E0,0E0,0E0,0E0,0E0,0E0,0E0,0E0],"parents":[2147483647,0,0,1,1,2,2,3,3,4,4,5,5,6,6],"right_children":[2,4,6,8,10,12,14,-1,-1,-1,-1,-1,-1,-1,-1],"split_conditions":[1E0,7.98E3,1E0,1E0,3E1,4E0,1.987E3,-1.9271133E-2,2.6616263E-1,4.1399905E-1,1.246567E-1,-1.1384631E-1,1.7614289E-1,-7.409122E-2,-2.895846E-1],"split_indices":[26,1,32,20,4,2,1,0,0,0,0,0,0,0,0],"split_type":[0,0,0,0,0,0,0,0,0,0,0,0,0,0,0],"sum_hessian":[1.2986208E2,1.099288E2,1.9933285E1,1.02868576E2,7.0602207E0,8.404886E0,1.15283985E1,9.7703445E1,5.16513E0,3.2005773E0,3.8596432E0,4.4189506E0,3.9859352E0,2.8969114E0,8.631487E0],"tree_param":{"num_deleted":"0","num_feature":"48","num_nodes":"15","size_leaf_vector":"1"}},{"base_weights":[-1.1336002E-2,9.5846415E-2,-3.3824784E-1,1.4901546E-1,-7.0561355E-1,3.5306618E-2,-6.5284574E-1,6.8368785E-2,-9.917199E-2,-2.638279E-1,-5.1005054E-3,-1.9238044E-1,1.1696726E-1,-2.2908743E-1,-3.319976E-3],"categories":[],"categories_nodes":[],"categories_segments":[],"categories_sizes":[],"default_left":[0,0,0,0,0,0,0,0,0,0,0,0,0,0,0],"id":7,"left_children":[1,3,5,7,9,11,13,-1,-1,-1,-1,-1,-1,-1,-1],"loss_changes":[4.560034E0,4.28505E0,3.7984207E0,3.5864825E0,7.36321E-1,4.0009727E0,1.2350273E0,0E0,0E0,0E0,0E0,0E0,0E0,0E0,0E0],"parents":[2147483647,0,0,1,1,2,2,3,3,4,4,5,5,6,6],"right_children":[2,4,6,8,10,12,14,-1,-1,-1,-1,-1,-1,-1,-1],"split_conditions":[1E0,1E0,3.4E1,1E0,4E0,1.8E1,1E0,6.8368785E-2,-9.917199E-2,-2.638279E-1,-5.1005054E-3,-1.9238044E-1,1.1696726E-1,-2.2908743E-1,-3.319976E-3],"split_indices":[13,35,4,29,3,0,42,0,0,0,0,0,0,0,0],"split_type":[0,0,0,0,0,0,0,0,0,0,0,0,0,0,0],"sum_hessian":[1.2821567E2,9.709017E1,3.11255E1,9.181333E1,5.2768474E0,1.4635288E1,1.6490211E1,7.929592E1,1.25174055E1,3.9921E0,1.2847474E0,4.75461E0,9.880678E0,1.390089E1,2.5893207E0],"tree_param":{"num_deleted":"0","num_feature":"48","num_nodes":"15","size_leaf_vector":"1"}},{"base_weights":[-1.5592798E-2,8.0104984E-2,-2.8966382E-1,5.4815865E-1,6.676293E-3,1.6775706E-1,-4.6741784E-1,-2.0276012E-1,2.77043E-1,-6.597662E-2,6.7811124E-2,1.21178605E-1,-1.7567343E-1,-1.4342131E-2,-2.2090426E-1],"categories":[],"categories_nodes":[],"categories_segments":[],"categories_sizes":[],"default_left":[0,0,0,0,0,0,0,0,0,0,0,0,0,0,0],"id":8,"left_children":[1,3,5,7,9,11,13,-1,-1,-1,-1,-1,-1,-1,-1],"loss_changes":[3.375196E0,3.2788732E0,2.7853625E0,6.568512E0,4.203721E0,2.0250852E0,2.7001338E0,0E0,0E0,0E0,0E0,0E0,0E0,0E0,0E0],"parents":[2147483647,0,0,1,1,2,2,3,3,4,4,5,5,6,6],"right_children":[2,4,6,8,10,12,14,-1,-1,-1,-1,-1,-1,-1,-1],"split_conditions":[1E0,9.75E2,1E0,6.09E2,2.2E1,4.2E1,3.2E1,-2.0276012E-1,2.77043E-1,-6.597662E-2,6.7811124E-2,1.21178605E-1,-1.7567343E-1,-1.4342131E-2,-2.2090426E-1],"split_indices":[9,1,40,1,0,4,4,0,0,0,0,0,0,0,0],"split_type":[0,0,0,0,0,0,0,0,0,0,0,0,0,0,0],"sum_hessian":[1.2680211E2,9.450973E1,3.2292377E1,1.193944E1,8.257029E1,9.052778E0,2.3239601E1,2.613908E0,9.325531E0,4.0613857E1,4.1956432E1,7.245208E0,1.8075699E0,9.536921E0,1.3702682E1],"tree_param":{"num_deleted":"0","num_feature":"48","num_nodes":"15","size_leaf_vector":"1"}},{"base_weights":[-1.5735876E-2,3.9788816E-2,-4.8066413E-1,-1.5839262E-1,1.798129E-1,-7.206504E-1,2.4212563E-1,-9.485233E-2,1.24529675E-1,7.088252E-2,-2.9533586E-1,-2.972885E-1,3.4280755E-2],"categories":[],"categories_nodes":[],"categories_segments":[],"categories_sizes":[],"default_left":[0,0,0,0,0,0,0,0,0,0,0,0,0],"id":9,"left_children":[1,3,5,7,9,11,-1,-1,-1,-1,-1,-1,-1],"loss_changes":[3.254833E0,3.1612966E0,4.737817E0,4.408716E0,4.6121044E0,2.790872E0,0E0,0E0,0E0,0E0,0E0,0E0,0E0],"parents":[2147483647,0,0,1,1,2,2,3,3,4,4,5,5],"right_children":[2,4,6,8,10,12,-1,-1,-1,-1,-1,-1,-1],"split_conditions":[1E0,1.8E1,9.566E3,1E0,1E0,4.6E1,2.4212563E-1,-9.485233E-2,1.24529675E-1,7.088252E-2,-2.9533586E-1,-2.972885E-1,3.4280755E-2],"split_indices":[14,0,1,27,25,4,0,0,0,0,0,0,0],"split_type":[0,0,0,0,0,0,0,0,0,0,0,0,0],"sum_hessian":[1.2434216E2,1.1189355E2,1.244862E1,4.627193E1,6.562161E1,1.0864316E1,1.5843043E0,3.664003E1,9.631899E0,6.3346622E1,2.2749937E0,8.065996E0,2.7983198E0],"tree_param":{"num_deleted":"0","num_feature":"48","num_nodes":"13","size_leaf_vector":"1"}},{"base_weights":[-1.4924942E-2,2.0912094E-1,-1.1688152E-1,-2.2694212E-1,4.7938347E-1,-1.7150451E-1,9.6276695E-1,1.5938874E-1,-2.0679516E-1,2.9902336E-1,4.994634E-2,-6.3913666E-2,1.7695978E-1,8.809936E-2,3.658166E-1],"categories":[],"categories_nodes":[],"categories_segments":[],"categories_sizes":[],"default_left":[0,0,0,0,0,0,0,0,0,0,0,0,0,0,0],"id":10,"left_children":[1,3,5,7,9,11,13,-1,-1,-1,-1,-1,-1,-1,-1],"loss_changes":[2.8539104E0,4.71648E0,5.2232127E0,5.8489733E0,3.793446E0,2.7345817E0,3.77079E-1,0E0,0E0,0E0,0E0,0E0,0E0,0E0,0E0],"parents":[2147483647,0,0,1,1,2,2,3,3,4,4,5,5,6,6],"right_children":[2,4,6,8,10,12,14,-1,-1,-1,-1,-1,-1,-1,-1],"split_conditions":[1E0,3E0,1E0,2.662E3,3E1,1E0,1.3E1,1.5938874E-1,-2.0679516E-1,2.9902336E-1,4.994634E-2,-6.3913666E-2,1.7695978E-1,8.809936E-2,3.658166E-1],"split_indices":[41,2,20,1,4,38,0,0,0,0,0,0,0,0,0],"split_type":[0,0,0,0,0,0,0,0,0,0,0,0,0,0,0],"sum_hessian":[1.22866135E2,3.80974E1,8.476873E1,1.4638603E1,2.3458797E1,8.1487175E1,3.2815583E0,5.4887214E0,9.149882E0,8.017167E0,1.544163E1,7.795411E1,3.533062E0,1.5041256E0,1.7774327E0],"tree_param":{"num_deleted":"0","num_feature":"48","num_nodes":"15","size_leaf_vector":"1"}},{"base_weights":[-4.56296E-3,5.5756755E-2,-3.4789526E-1,1.9482572E-2,3.2348335E-1,3.1528628E-1,-5.705362E-1,8.8946104E-2,-2.138082E-2,-9.1637574E-2,2.7416164E-1,7.4107245E-2,-2.078527E-1],"categories":[],"categories_nodes":[],"categories_segments":[],"categories_sizes":[],"default_left":[0,0,0,0,0,0,0,0,0,0,0,0,0],"id":11,"left_children":[1,3,5,7,-1,9,11,-1,-1,-1,-1,-1,-1],"loss_changes":[2.5495918E0,3.865364E0,2.8959641E0,2.5904999E0,0E0,2.23639E0,1.5838184E0,0E0,0E0,0E0,0E0,0E0,0E0],"parents":[2147483647,0,0,1,1,2,2,3,3,5,5,6,6],"right_children":[2,4,6,8,-1,10,12,-1,-1,-1,-1,-1,-1],"split_conditions":[1E0,1.156E4,1.386E3,1E0,3.2348335E-1,1E0,2E0,8.8946104E-2,-2.138082E-2,-9.1637574E-2,2.7416164E-1,7.4107245E-2,-2.078527E-1],"split_indices":[26,1,1,40,0,28,3,0,0,0,0,0,0],"split_type":[0,0,0,0,0,0,0,0,0,0,0,0,0],"sum_hessian":[1.211743E2,1.0377906E2,1.7395239E1,1.0120775E2,2.571316E0,4.267499E0,1.3127741E1,2.44158E1,7.679195E1,2.335373E0,1.9321262E0,1.5756336E0,1.1552107E1],"tree_param":{"num_deleted":"0","num_feature":"48","num_nodes":"13","size_leaf_vector":"1"}},{"base_weights":[-6.3838466E-4,2.7303658E-2,-6.989056E-1,8.6038835E-2,-3.0761567E-1,-2.7914265E-1,-6.2973864E-2,4.2396512E-2,-1.4527291E-1,-2.8376466E-1,1.0486513E-2],"categories":[],"categories_nodes":[],"categories_segments":[],"categories_sizes":[],"default_left":[0,0,0,0,0,0,0,0,0,0,0],"id":12,"left_children":[1,3,5,7,9,-1,-1,-1,-1,-1,-1],"loss_changes":[2.3755288E0,2.3298194E0,3.3514762E-1,3.2337737E0,3.9007988E0,0E0,0E0,0E0,0E0,0E0,0E0],"parents":[2147483647,0,0,1,1,2,2,3,3,4,4],"right_children":[2,4,6,8,10,-1,-1,-1,-1,-1,-1],"split_conditions":[1E0,1E0,1E0,1E0,1E0,-2.7914265E-1,-6.2973864E-2,4.2396512E-2,-1.4527291E-1,-2.8376466E-1,1.0486513E-2],"split_indices":[47,29,28,8,44,0,0,0,0,0,0],"split_type":[0,0,0,0,0,0,0,0,0,0,0],"sum_hessian":[1.1977517E2,1.1609056E2,3.684612E0,9.940151E1,1.6689049E1,1.8877833E0,1.7968287E0,9.130284E1,8.098667E0,5.2137785E0,1.147527E1],"tree_param":{"num_deleted":"0","num_feature":"48","num_nodes":"11","size_leaf_vector":"1"}},{"base_weights":[-7.605692E-3,2.3605248E-2,-5.6776613E-1,-5.071021E-1,6.3286945E-2,-2.8421864E-1,5.411636E-2,-2.0539235E-1,9.334245E-2,1.1858174E-1,-1.0712745E-2,2.0322809E-1,-1.633088E-1],"categories":[],"categories_nodes":[],"categories_segments":[],"categories_sizes":[],"default_left":[0,0,0,0,0,0,0,0,0,0,0,0,0],"id":13,"left_children":[1,3,5,7,9,-1,11,-1,-1,-1,-1,-1,-1],"loss_changes":[2.1231616E0,2.4595058E0,1.5642791E0,1.3940525E0,3.5680115E0,0E0,1.6278609E0,0E0,0E0,0E0,0E0,0E0,0E0],"parents":[2147483647,0,0,1,1,2,2,3,3,4,4,6,6],"right_children":[2,4,6,8,10,-1,12,-1,-1,-1,-1,-1,-1],"split_conditions":[1E0,9E0,2E0,1.961E3,1.374E3,-2.8421864E-1,1.8E1,-2.0539235E-1,9.334245E-2,1.1858174E-1,-1.0712745E-2,2.0322809E-1,-1.633088E-1],"split_indices":[25,0,5,1,1,0,0,0,0,0,0,0,0],"split_type":[0,0,0,0,0,0,0,0,0,0,0,0,0],"sum_hessian":[1.1967398E2,1.1426523E2,5.4087534E0,7.1299024E0,1.0713532E2,3.0335104E0,2.3752432E0,5.992873E0,1.1370292E0,2.3921442E1,8.321388E1,1.0988679E0,1.2763753E0],"tree_param":{"num_deleted":"0","num_feature":"48","num_nodes":"13","size_leaf_vector":"1"}},{"base_weights":[-8.860796E-3,-9.4621144E-2,1.9941755E-1,-2.7231427E-2,-9.262077E-1,7.163505E-1,-8.5037634E-2,2.4228474E-2,-1.1150066E-1,-3.38857E-1,-9.219563E-2,2.5192147E-1,-8.975641E-2,-2.4736989E-1,5.8391396E-2],"categories":[],"categories_nodes":[],"categories_segments":[],"categories_sizes":[],"default_left":[0,0,0,0,0,0,0,0,0,0,0,0,0,0,0],"id":14,"left_children":[1,3,5,7,9,11,13,-1,-1,-1,-1,-1,-1,-1,-1],"loss_changes":[2.166122E0,4.7847056E0,5.263876E0,3.0216064E0,4.5865726E-1,1.8383083E0,5.066039E0,0E0,0E0,0E0,0E0,0E0,0E0,0E0,0E0],"parents":[2147483647,0,0,1,1,2,2,3,3,4,4,5,5,6,6],"right_children":[2,4,6,8,10,12,14,-1,-1,-1,-1,-1,-1,-1,-1],"split_conditions":[3.914E3,3.496E3,5.302E3,1E0,4E0,1E0,6.416E3,2.4228474E-2,-1.1150066E-1,-3.38857E-1,-9.219563E-2,2.5192147E-1,-8.975641E-2,-2.4736989E-1,5.8391396E-2],"split_indices":[1,1,1,9,3,23,1,0,0,0,0,0,0,0,0],"split_type":[0,0,0,0,0,0,0,0,0,0,0,0,0,0,0],"sum_hessian":[1.192133E2,8.482967E1,3.438363E1,7.9425934E1,5.403735E0,1.1665641E1,2.2717989E1,6.105014E1,1.8375797E1,3.4464388E0,1.9572961E0,1.0556177E1,1.1094637E0,5.699326E0,1.7018663E1],"tree_param":{"num_deleted":"0","num_feature":"48","num_nodes":"15","size_leaf_vector":"1"}},{"base_weights":[-1.3055869E-2,-2.8678313E-1,4.8792055E-3,3.9028874E-1,-4.8307367E-2,3.3822173E-1,7.4968096E-3,-7.93168E-2,1.6481156E-2],"categories":[],"categories_nodes":[],"categories_segments":[],"categories_sizes":[],"default_left":[0,0,0,0,0,0,0,0,0],"id":15,"left_children":[1,-1,3,5,7,-1,-1,-1,-1],"loss_changes":[2.0103002E0,0E0,2.425026E0,3.8343616E0,2.3355305E0,0E0,0E0,0E0,0E0],"parents":[2147483647,0,0,2,2,3,3,4,4],"right_children":[2,-1,4,6,8,-1,-1,-1,-1],"split_conditions":[4.33E2,-2.8678313E-1,9.75E2,1E0,1.8E1,3.3822173E-1,7.4968096E-3,-7.93168E-2,1.6481156E-2],"split_indices":[1,0,1,40,0,0,0,0,0],"split_type":[0,0,0,0,0,0,0,0,0],"sum_hessian":[1.17601135E2,1.2189306E0,1.1638221E2,1.3344552E1,1.0303765E2,3.7305777E0,9.613975E0,3.2809464E1,7.022819E1],"tree_param":{"num_deleted":"0","num_feature":"48","num_nodes":"9","size_leaf_vector":"1"}},{"base_weights":[-9.914362E-3,3.796488E-2,-2.9552975E-1,-7.856019E-3,6.038345E-1,1.05310805E-1,-6.12899E-1,-1.945554E-2,2.6110566E-1,4.969586E-2,2.7924332E-1,2.2536828E-1,-6.517827E-2,1.6745012E-2,-2.4911556E-1],"categories":[],"categories_nodes":[],"categories_segments":[],"categories_sizes":[],"default_left":[0,0,0,0,0,0,0,0,0,0,0,0,0,0,0],"id":16,"left_children":[1,3,5,7,9,11,13,-1,-1,-1,-1,-1,-1,-1,-1],"loss_changes":[1.6183802E0,2.637496E0,2.2254994E0,4.8075542E0,9.37413E-1,1.9049749E0,1.4464791E0,0E0,0E0,0E0,0E0,0E0,0E0,0E0,0E0],"parents":[2147483647,0,0,1,1,2,2,3,3,4,4,5,5,6,6],"right_children":[2,4,6,8,10,12,14,-1,-1,-1,-1,-1,-1,-1,-1],"split_conditions":[1E0,4.8E1,1E0,1E0,3.2E1,1E0,1.8E1,-1.945554E-2,2.6110566E-1,4.969586E-2,2.7924332E-1,2.2536828E-1,-6.517827E-2,1.6745012E-2,-2.4911556E-1],"split_indices":[26,0,32,20,4,40,0,0,0,0,0,0,0,0,0],"split_type":[0,0,0,0,0,0,0,0,0,0,0,0,0,0,0],"sum_hessian":[1.16525024E2,1.0053832E2,1.5986702E1,9.391938E1,6.61894E0,7.359613E0,8.6270895E0,8.90652E1,4.854184E0,3.4723113E0,3.1466289E0,2.0086422E0,5.3509707E0,2.2996361E0,6.327453E0],"tree_param":{"num_deleted":"0","num_feature":"48","num_nodes":"15","size_leaf_vector":"1"}},{"base_weights":[-3.3689062E-3,-2.648516E-1,1.2535508E-2,8.106387E-2,-2.1696705E-1,-4.877347E-3,1.1873064E-1,2.6122767E-2,-1.2929612E-1],"categories":[],"categories_nodes":[],"categories_segments":[],"categories_sizes":[],"default_left":[0,0,0,0,0,0,0,0,0],"id":17,"left_children":[1,-1,3,5,7,-1,-1,-1,-1],"loss_changes":[1.6338836E0,0E0,1.8253726E0,2.7397227E0,1.7750641E0,0E0,0E0,0E0,0E0],"parents":[2147483647,0,0,2,2,3,3,4,4],"right_children":[2,-1,4,6,8,-1,-1,-1,-1],"split_conditions":[4.33E2,-2.648516E-1,1E0,2E0,1E0,-4.877347E-3,1.1873064E-1,2.6122767E-2,-1.2929612E-1],"split_indices":[1,0,13,5,32,0,0,0,0],"split_type":[0,0,0,0,0,0,0,0,0],"sum_hessian":[1.1501949E2,1.0748395E0,1.1394466E2,8.8242615E1,2.5702036E1,6.812383E1,2.0118782E1,1.0862955E1,1.4839082E1],"tree_param":{"num_deleted":"0","num_feature":"48","num_nodes":"9","size_leaf_vector":"1"}},{"base_weights":[-5.385728E-3,4.316912E-2,-2.9039177E-1,2.6506406E-1,-6.0767535E-2,1.9291006E-1,-6.649777E-1,1.8402204E-2,1.8614635E-1,-4.3102622E-2,1.5443924E-1,1.3343841E-1,-1.9795448E-1,-3.5509944E-1,-5.2361626E-2],"categories":[],"categories_nodes":[],"categories_segments":[],"categories_sizes":[],"default_left":[0,0,0,0,0,0,0,0,0,0,0,0,0,0,0],"id":18,"left_children":[1,3,5,7,9,11,13,-1,-1,-1,-1,-1,-1,-1,-1],"loss_changes":[1.6092027E0,2.3098304E0,3.1922803E0,2.2725842E0,3.3447669E0,2.0473232E0,2.276084E0,0E0,0E0,0E0,0E0,0E0,0E0,0E0,0E0],"parents":[2147483647,0,0,1,1,2,2,3,3,4,4,5,5,6,6],"right_children":[2,4,6,8,10,12,14,-1,-1,-1,-1,-1,-1,-1,-1],"split_conditions":[1E0,1E0,3E1,2E0,1E0,1E0,1E0,1.8402204E-2,1.8614635E-1,-4.3102622E-2,1.5443924E-1,1.3343841E-1,-1.9795448E-1,-3.5509944E-1,-5.2361626E-2],"split_indices":[29,41,4,5,45,9,44,0,0,0,0,0,0,0,0],"split_type":[0,0,0,0,0,0,0,0,0,0,0,0,0,0,0],"sum_hessian":[1.1437922E2,9.8454605E1,1.5924615E1,3.0911413E1,6.754319E1,7.165055E0,8.759561E0,2.03943E1,1.0517112E1,5.9694767E1,7.8484216E0,5.900571E0,1.2644839E0,3.570222E0,5.189338E0],"tree_param":{"num_deleted":"0","num_feature":"48","num_nodes":"15","size_leaf_vector":"1"}},{"base_weights":[-6.660293E-3,3.125063E-2,-3.5945192E-1,6.0683258E-2,-4.2059064E-1,-6.1619675E-1,4.0087652E-1,3.0724317E-2,-1.0637455E-1,-2.13777E-1,1.20382205E-1,-2.745313E-1,4.7723353E-2,-6.943592E-2,2.3639968E-1],"categories":[],"categories_nodes":[],"categories_segments":[],"categories_sizes":[],"default_left":[0,0,0,0,0,0,0,0,0,0,0,0,0,0,0],"id":19,"left_children":[1,3,5,7,9,11,13,-1,-1,-1,-1,-1,-1,-1,-1],"loss_changes":[1.5398084E0,1.4101909E0,2.4274702E0,1.745445E0,1.8442957E0,2.1719284E0,1.0209064E0,0E0,0E0,0E0,0E0,0E0,0E0,0E0,0E0],"parents":[2147483647,0,0,1,1,2,2,3,3,4,4,5,5,6,6],"right_children":[2,4,6,8,10,12,14,-1,-1,-1,-1,-1,-1,-1,-1],"split_conditions":[1E0,1E0,7.98E3,1E0,1E0,1E0,1E0,3.0724317E-2,-1.0637455E-1,-2.13777E-1,1.20382205E-1,-2.745313E-1,4.7723353E-2,-6.943592E-2,2.3639968E-1],"split_indices":[14,24,1,8,43,42,11,0,0,0,0,0,0,0,0],"split_type":[0,0,0,0,0,0,0,0,0,0,0,0,0,0,0],"sum_hessian":[1.1328895E2,1.03119194E2,1.016975E1,9.7625626E1,5.493568E0,7.744262E0,2.4254882E0,8.939542E1,8.230214E0,4.1515336E0,1.3420341E0,5.45913E0,2.2851324E0,1.0737437E0,1.3517445E0],"tree_param":{"num_deleted":"0","num_feature":"48","num_nodes":"15","size_leaf_vector":"1"}},{"base_weights":[-8.055365E-3,1.6936356E-2,-4.7676498E-1,6.2599696E-2,-2.6183602E-1,-7.349288E-1,7.731175E-2,3.0214239E-2,-1.731678E-1,-2.2013803E-1,-9.210764E-3,-2.783423E-1,-4.1426986E-2],"categories":[],"categories_nodes":[],"categories_segments":[],"categories_sizes":[],"default_left":[0,0,0,0,0,0,0,0,0,0,0,0,0],"id":20,"left_children":[1,3,5,7,9,11,-1,-1,-1,-1,-1,-1,-1],"loss_changes":[1.3389267E0,1.4017348E0,1.286415E0,2.3582234E0,1.669397E0,3.945663E-1,0E0,0E0,0E0,0E0,0E0,0E0,0E0],"parents":[2147483647,0,0,1,1,2,2,3,3,4,4,5,5],"right_children":[2,4,6,8,10,12,-1,-1,-1,-1,-1,-1,-1],"split_conditions":[1E0,1E0,2E0,1E0,1E0,1E0,7.731175E-2,3.0214239E-2,-1.731678E-1,-2.2013803E-1,-9.210764E-3,-2.783423E-1,-4.1426986E-2],"split_indices":[25,29,6,35,44,7,0,0,0,0,0,0,0],"split_type":[0,0,0,0,0,0,0,0,0,0,0,0,0],"sum_hessian":[1.1261345E2,1.078279E2,4.785547E0,9.331776E1,1.4510144E1,3.540463E0,1.2450836E0,8.886656E1,4.4511924E0,4.055124E0,1.045502E1,2.2566504E0,1.2838124E0],"tree_param":{"num_deleted":"0","num_feature":"48","num_nodes":"13","size_leaf_vector":"1"}},{"base_weights":[-1.2118493E-2,6.684299E-3,-5.3653604E-1,-1.9474339E-2,4.915247E-1,-2.3879965E-1,-2.6491862E-2,-1.8012065E-2,1.3655823E-1,-8.6582534E-2,2.8591916E-1],"categories":[],"categories_nodes":[],"categories_segments":[],"categories_sizes":[],"default_left":[0,0,0,0,0,0,0,0,0,0,0],"id":21,"left_children":[1,3,5,7,9,-1,-1,-1,-1,-1,-1],"loss_changes":[1.1197336E0,1.4080153E0,3.868029E-1,2.0603218E0,2.321156E0,0E0,0E0,0E0,0E0,0E0,0E0],"parents":[2147483647,0,0,1,1,2,2,3,3,4,4],"right_children":[2,4,6,8,10,-1,-1,-1,-1,-1,-1],"split_conditions":[1E0,1E0,1E0,1E0,1E0,-2.3879965E-1,-2.6491862E-2,-1.8012065E-2,1.3655823E-1,-8.6582534E-2,2.8591916E-1],"split_indices":[47,34,28,10,44,0,0,0,0,0,0],"split_type":[0,0,0,0,0,0,0,0,0,0,0],"sum_hessian":[1.1219362E2,1.09263275E2,2.9303396E0,1.0458066E2,4.682616E0,1.3645706E0,1.5657688E0,9.715147E1,7.4291987E0,1.8798368E0,2.8027794E0],"tree_param":{"num_deleted":"0","num_feature":"48","num_nodes":"11","size_leaf_vector":"1"}},{"base_weights":[-8.4608905E-3,1.4799385E-1,-6.34382E-2,-1.3466315E-1,9.199529E-1,-5.0870776E-1,1.3976913E-2,-6.346284E-3,-2.4969147E-1,3.6347848E-1,2.2993889E-2,-1.957203E-1,1.6037229E-1,1.44938715E-2,-2.3781112E-1],"categories":[],"categories_nodes":[],"categories_segments":[],"categories_sizes":[],"default_left":[0,0,0,0,0,0,0,0,0,0,0,0,0,0,0],"id":22,"left_children":[1,3,5,7,9,11,13,-1,-1,-1,-1,-1,-1,-1,-1],"loss_changes":[9.792187E-1,6.5865564E0,2.9072468E0,1.7682725E0,1.8908973E0,2.2208374E0,2.0504546E0,0E0,0E0,0E0,0E0,0E0,0E0,0E0,0E0],"parents":[2147483647,0,0,1,1,2,2,3,3,4,4,5,5,6,6],"right_children":[2,4,6,8,10,12,14,-1,-1,-1,-1,-1,-1,-1,-1],"split_conditions":[1.374E3,1E0,1.766E3,1E0,3.8E1,1E0,1E0,-6.346284E-3,-2.4969147E-1,3.6347848E-1,2.2993889E-2,-1.957203E-1,1.6037229E-1,1.44938715E-2,-2.3781112E-1],"split_indices":[1,37,1,16,4,10,25,0,0,0,0,0,0,0,0],"split_type":[0,0,0,0,0,0,0,0,0,0,0,0,0,0,0],"sum_hessian":[1.1175181E2,2.8618164E1,8.3133644E1,2.1552248E1,7.065916E0,1.148782E1,7.164582E1,1.9422464E1,2.1297839E0,4.9257255E0,2.1401906E0,1.0426433E1,1.0613874E0,6.962248E1,2.0233397E0],"tree_param":{"num_deleted":"0","num_feature":"48","num_nodes":"15","size_leaf_vector":"1"}},{"base_weights":[-8.5044885E-3,3.0853607E-2,-2.5044158E-1,6.3538896E-3,2.3364006E-1,-6.245967E-1,9.4922476E-2,-1.7198289E-2,6.680073E-2,3.196613E-2,-2.4062663E-1,-3.3394195E-2,1.9397645E-1],"categories":[],"categories_nodes":[],"categories_segments":[],"categories_sizes":[],"default_left":[0,0,0,0,0,0,0,0,0,0,0,0,0],"id":23,"left_children":[1,3,5,7,-1,9,11,-1,-1,-1,-1,-1,-1],"loss_changes":[1.0744174E0,1.77689E0,2.098822E0,1.3236518E0,0E0,1.0857422E0,1.104536E0,0E0,0E0,0E0,0E0,0E0,0E0],"parents":[2147483647,0,0,1,1,2,2,3,3,5,5,6,6],"right_children":[2,4,6,8,-1,10,12,-1,-1,-1,-1,-1,-1],"split_conditions":[1E0,1.156E4,1E0,2.8E1,2.3364006E-1,1.274E3,1E0,-1.7198289E-2,6.680073E-2,3.196613E-2,-2.4062663E-1,-3.3394195E-2,1.9397645E-1],"split_indices":[26,1,11,0,0,1,36,0,0,0,0,0,0],"split_type":[0,0,0,0,0,0,0,0,0,0,0,0,0],"sum_hessian":[1.110216E2,9.6238144E1,1.4783457E1,9.416226E1,2.0758812E0,6.7078714E0,8.075585E0,7.331413E1,2.0848133E1,1.3883699E0,5.3195014E0,6.459112E0,1.6164731E0],"tree_param":{"num_deleted":"0","num_feature":"48","num_nodes":"13","size_leaf_vector":"1"}},{"base_weights":[-4.461489E-3,-5.722378E-2,1.913728E-1,4.026546E-2,-3.416335E-1,5.9559215E-2,4.972224E-1,8.927183E-2,-4.0024146E-2,-2.3650844E-1,-1.09444065E-2,-2.6276723E-1,5.663477E-2,3.5705236E-1,2.53534E-3],"categories":[],"categories_nodes":[],"categories_segments":[],"categories_sizes":[],"default_left":[0,0,0,0,0,0,0,0,0,0,0,0,0,0,0],"id":24,"left_children":[1,3,5,7,9,11,13,-1,-1,-1,-1,-1,-1,-1,-1],"loss_changes":[1.1589062E0,2.4617515E0,9.302907E-1,3.0180416E0,3.0580087E0,2.314044E0,2.372636E0,0E0,0E0,0E0,0E0,0E0,0E0,0E0,0E0],"parents":[2147483647,0,0,1,1,2,2,3,3,4,4,5,5,6,6],"right_children":[2,4,6,8,10,12,14,-1,-1,-1,-1,-1,-1,-1,-1],"split_conditions":[1E0,1E0,1E0,1E0,1.4E1,2.3E1,2.6E1,8.927183E-2,-4.0024146E-2,-2.3650844E-1,-1.09444065E-2,-2.6276723E-1,5.663477E-2,3.5705236E-1,2.53534E-3],"split_indices":[27,17,17,32,0,4,4,0,0,0,0,0,0,0,0],"split_type":[0,0,0,0,0,0,0,0,0,0,0,0,0,0,0],"sum_hessian":[1.10099625E2,8.728958E1,2.281004E1,6.5646034E1,2.1643553E1,1.6775114E1,6.0349245E0,2.6166618E1,3.9479412E1,8.141415E0,1.3502139E1,1.3347466E0,1.5440368E1,1.9025557E0,4.1323686E0],"tree_param":{"num_deleted":"0","num_feature":"48","num_nodes":"15","size_leaf_vector":"1"}},{"base_weights":[-5.0705047E-3,2.5253426E-2,-3.088666E-1,-2.229728E-1,7.532016E-2,-5.1916724E-1,3.1969738E-1,5.054186E-2,-1.6754052E-1,8.6456984E-2,1.5479792E-4,-2.3394041E-1,6.6810645E-2,-4.6440728E-2,1.8448085E-1],"categories":[],"categories_nodes":[],"categories_segments":[],"categories_sizes":[],"default_left":[0,0,0,0,0,0,0,0,0,0,0,0,0,0,0],"id":25,"left_children":[1,3,5,7,9,11,13,-1,-1,-1,-1,-1,-1,-1,-1],"loss_changes":[1.021656E0,1.2718959E0,1.4962952E0,2.3533566E0,1.3499706E0,1.7054343E0,5.3534126E-1,0E0,0E0,0E0,0E0,0E0,0E0,0E0,0E0],"parents":[2147483647,0,0,1,1,2,2,3,3,4,4,5,5,6,6],"right_children":[2,4,6,8,10,12,14,-1,-1,-1,-1,-1,-1,-1,-1],"split_conditions":[1E0,2E0,7.98E3,3E0,1E0,4.6E1,1E0,5.054186E-2,-1.6754052E-1,8.6456984E-2,1.5479792E-4,-2.3394041E-1,6.6810645E-2,-4.6440728E-2,1.8448085E-1],"split_indices":[14,3,1,2,40,4,44,0,0,0,0,0,0,0,0],"split_type":[0,0,0,0,0,0,0,0,0,0,0,0,0,0,0],"sum_hessian":[1.0905471E2,9.999082E1,9.063884E0,1.6203226E1,8.37876E1,6.9220076E0,2.1418757E0,7.7078214E0,8.495404E0,2.1045618E1,6.274198E1,5.0845647E0,1.837443E0,1.0039786E0,1.1378973E0],"tree_param":{"num_deleted":"0","num_feature":"48","num_nodes":"15","size_leaf_vector":"1"}},{"base_weights":[-4.9736057E-3,5.935065E-2,-1.2642342E-1,1.7737542E-1,-3.2701787E-1,1.5727386E-2,-8.874079E-1,-4.571718E-2,1.11423306E-1,1.710202E-2,-1.5458232E-1,7.916931E-2,-1.3529204E-1,2.2856543E-2,-3.6085394E-1],"categories":[],"categories_nodes":[],"categories_segments":[],"categories_sizes":[],"default_left":[0,0,0,0,0,0,0,0,0,0,0,0,0,0,0],"id":26,"left_children":[1,3,5,7,9,11,13,-1,-1,-1,-1,-1,-1,-1,-1],"loss_changes":[8.62544E-1,3.3519237E0,4.148008E0,3.6385272E0,1.2767404E0,3.9624135E0,1.9252768E0,0E0,0E0,0E0,0E0,0E0,0E0,0E0,0E0],"parents":[2147483647,0,0,1,1,2,2,3,3,4,4,5,5,6,6],"right_children":[2,4,6,8,10,12,14,-1,-1,-1,-1,-1,-1,-1,-1],"split_conditions":[1E0,1E0,1E0,1.8E1,1E0,4E0,2.246E3,-4.571718E-2,1.11423306E-1,1.710202E-2,-1.5458232E-1,7.916931E-2,-1.3529204E-1,2.2856543E-2,-3.6085394E-1],"split_indices":[7,13,12,0,41,3,1,0,0,0,0,0,0,0,0],"split_type":[0,0,0,0,0,0,0,0,0,0,0,0,0,0,0],"sum_hessian":[1.0844985E2,7.1233376E1,3.721648E1,5.497957E1,1.6253803E1,3.2183907E1,5.032574E0,2.044598E1,3.453359E1,5.576166E0,1.0677638E1,2.1294828E1,1.0889077E1,1.4282002E0,3.6043742E0],"tree_param":{"num_deleted":"0","num_feature":"48","num_nodes":"15","size_leaf_vector":"1"}},{"base_weights":[-9.435008E-3,1.5785104E-1,-6.7985445E-2,-5.4915857E-2,6.988103E-1,-1.169552E-1,3.8904947E-1,2.8400524E-2,-1.5222622E-1,2.6715997E-1,-7.708646E-2,-1.5186979E-1,-1.5270942E-2,2.0910104E-1,-3.0708525E-2],"categories":[],"categories_nodes":[],"categories_segments":[],"categories_sizes":[],"default_left":[0,0,0,0,0,0,0,0,0,0,0,0,0,0,0],"id":27,"left_children":[1,3,5,7,9,11,13,-1,-1,-1,-1,-1,-1,-1,-1],"loss_changes":[1.0720899E0,3.3065538E0,1.8575945E0,1.4902152E0,1.7109449E0,1.8743724E0,1.2921135E0,0E0,0E0,0E0,0E0,0E0,0E0,0E0,0E0],"parents":[2147483647,0,0,1,1,2,2,3,3,4,4,5,5,6,6],"right_children":[2,4,6,8,10,12,14,-1,-1,-1,-1,-1,-1,-1,-1],"split_conditions":[1.374E3,1E0,5.2E1,1E0,2E1,1.766E3,1E0,2.8400524E-2,-1.5222622E-1,2.6715997E-1,-7.708646E-2,-1.5186979E-1,-1.5270942E-2,2.0910104E-1,-3.0708525E-2],"split_indices":[1,37,4,46,0,1,11,0,0,0,0,0,0,0,0],"split_type":[0,0,0,0,0,0,0,0,0,0,0,0,0,0,0],"sum_hessian":[1.0736079E2,2.739469E1,7.9966095E1,2.0306385E1,7.088304E0,7.2899284E1,7.066813E0,1.585575E1,4.4506354E0,5.9608335E0,1.1274701E0,9.608355E0,6.329093E1,4.087142E0,2.979671E0],"tree_param":{"num_deleted":"0","num_feature":"48","num_nodes":"15","size_leaf_vector":"1"}},{"base_weights":[-6.5701124E-3,1.8902238E-2,-3.0288205E-1,1.0080845E-1,-1.3297431E-1,2.37808E-1,-3.837854E-1,-4.5673735E-2,7.8947715E-2,5.2381726E-4,-3.004855E-1,1.9053784E-1,-1.5675522E-1],"categories":[],"categories_nodes":[],"categories_segments":[],"categories_sizes":[],"default_left":[0,0,0,0,0,0,0,0,0,0,0,0,0],"id":28,"left_children":[1,3,5,7,9,11,-1,-1,-1,-1,-1,-1,-1],"loss_changes":[8.16419E-1,1.2554692E0,4.8239317E0,2.728341E0,4.1459093E0,2.251117E0,0E0,0E0,0E0,0E0,0E0,0E0,0E0],"parents":[2147483647,0,0,1,1,2,2,3,3,4,4,5,5],"right_children":[2,4,6,8,10,12,-1,-1,-1,-1,-1,-1,-1],"split_conditions":[1E0,1E0,1E0,1.8E1,1E0,1E0,-3.837854E-1,-4.5673735E-2,7.8947715E-2,5.2381726E-4,-3.004855E-1,1.9053784E-1,-1.5675522E-1],"split_indices":[39,7,16,0,12,37,0,0,0,0,0,0,0],"split_type":[0,0,0,0,0,0,0,0,0,0,0,0,0],"sum_hessian":[1.06408516E2,9.884734E1,7.561169E0,6.443444E1,3.4412903E1,5.353226E0,2.2079432E0,2.5206917E1,3.9227524E1,3.065632E1,3.7565827E0,3.6240802E0,1.7291458E0],"tree_param":{"num_deleted":"0","num_feature":"48","num_nodes":"13","size_leaf_vector":"1"}},{"base_weights":[-1.1416484E-2,4.640888E-3,-4.8228246E-1,-4.739423E-2,1.9937445E-1,-2.0750122E-1,-2.7142555E-2,9.5592085E-3,-8.49143E-2,1.1810499E-1,-1.9840121E-2],"categories":[],"categories_nodes":[],"categories_segments":[],"categories_sizes":[],"default_left":[0,0,0,0,0,0,0,0,0,0,0],"id":29,"left_children":[1,3,5,7,9,-1,-1,-1,-1,-1,-1],"loss_changes":[8.0986035E-1,1.0661573E0,2.2718781E-1,1.5611547E0,1.1704185E0,0E0,0E0,0E0,0E0,0E0,0E0],"parents":[2147483647,0,0,1,1,2,2,3,3,4,4],"right_children":[2,4,6,8,10,-1,-1,-1,-1,-1,-1],"split_conditions":[1E0,1E0,1E0,1E0,2.6E3,-2.0750122E-1,-2.7142555E-2,9.5592085E-3,-8.49143E-2,1.1810499E-1,-1.9840121E-2],"split_indices":[47,27,28,17,1,0,0,0,0,0,0],"split_type":[0,0,0,0,0,0,0,0,0,0,0],"sum_hessian":[1.0581603E2,1.03284004E2,2.5320253E0,8.2102E1,2.1182009E1,1.1513767E0,1.3806487E0,6.208536E1,2.0016636E1,1.1952192E1,9.2298155E0],"tree_param":{"num_deleted":"0","num_feature":"48","num_nodes":"11","size_leaf_vector":"1"}},{"base_weights":[-1.047937E-2,1.724443E-2,-2.9328442E-1,-2.3031071E-1,6.6642135E-2,-5.250647E-1,2.6633522E-1,-2.8787017E-2,-2.6676372E-1,3.271884E-2,-6.126681E-2,-5.16149E-2,-2.912894E-1,-4.360782E-2,1.8637542E-1],"categories":[],"categories_nodes":[],"categories_segments":[],"categories_sizes":[],"default_left":[0,0,0,0,0,0,0,0,0,0,0,0,0,0,0],"id":30,"left_children":[1,3,5,7,9,11,13,-1,-1,-1,-1,-1,-1,-1,-1],"loss_changes":[8.3845466E-1,1.2106916E0,1.3779731E0,1.3740168E0,9.6751344E-1,9.484086E-1,5.957351E-1,0E0,0E0,0E0,0E0,0E0,0E0,0E0,0E0],"parents":[2147483647,0,0,1,1,2,2,3,3,4,4,5,5,6,6],"right_children":[2,4,6,8,10,12,14,-1,-1,-1,-1,-1,-1,-1,-1],"split_conditions":[1E0,2E0,1E0,3.9E1,1E0,1E0,1E0,-2.8787017E-2,-2.6676372E-1,3.271884E-2,-6.126681E-2,-5.16149E-2,-2.912894E-1,-4.360782E-2,1.8637542E-1],"split_indices":[14,3,31,0,26,7,7,0,0,0,0,0,0,0,0],"split_type":[0,0,0,0,0,0,0,0,0,0,0,0,0,0,0],"sum_hessian":[1.052948E2,9.6749344E1,8.545458E0,1.5484893E1,8.126445E1,6.0863805E0,2.4590778E0,1.3813807E1,1.6710865E0,7.0777245E1,1.0487206E1,4.1704884E0,1.915892E0,1.4118288E0,1.047249E0],"tree_param":{"num_deleted":"0","num_feature":"48","num_nodes":"15","size_leaf_vector":"1"}},{"base_weights":[-1.2869356E-2,9.757083E-3,-2.8034508E-1,-3.378658E-1,3.1800646E-2,1.583702E-1,-3.2672074E-1,-2.2291988E-1,6.908416E-2,3.5921324E-2,-2.5611069E-2,1.4660273E-1,-1.3696322E-1],"categories":[],"categories_nodes":[],"categories_segments":[],"categories_sizes":[],"default_left":[0,0,0,0,0,0,0,0,0,0,0,0,0],"id":31,"left_children":[1,3,5,7,9,11,-1,-1,-1,-1,-1,-1,-1],"loss_changes":[6.4397115E-1,7.667339E-1,3.1164198E0,1.5452571E0,9.755464E-1,1.493017E0,0E0,0E0,0E0,0E0,0E0,0E0,0E0],"parents":[2147483647,0,0,1,1,2,2,3,3,4,4,5,5],"right_children":[2,4,6,8,10,12,-1,-1,-1,-1,-1,-1,-1],"split_conditions":[1E0,9E0,1E0,4E0,2.779E3,1E0,-3.2672074E-1,-2.2291988E-1,6.908416E-2,3.5921324E-2,-2.5611069E-2,1.4660273E-1,-1.3696322E-1],"split_indices":[39,0,16,3,1,37,0,0,0,0,0,0,0],"split_type":[0,0,0,0,0,0,0,0,0,0,0,0,0],"sum_hessian":[1.0495396E2,9.765648E1,7.297483E0,4.9690046E0,9.268747E1,5.2523627E0,2.0451202E0,2.720718E0,2.248287E0,5.293654E1,3.9750935E1,3.5504875E0,1.7018753E0],"tree_param":{"num_deleted":"0","num_feature":"48","num_nodes":"13","size_leaf_vector":"1"}},{"base_weights":[-1.4250659E-2,-6.431058E-2,1.1990124E-1,-7.9835905E-3,-5.867242E-1,5.326971E-1,-8.9150846E-2,-1.3917538E-2,2.4558099E-1,-2.9640326E-1,-3.481032E-2,1.9492029E-1,-7.1517706E-2,-1.912165E-1,3.9889317E-2],"categories":[],"categories_nodes":[],"categories_segments":[],"categories_sizes":[],"default_left":[0,0,0,0,0,0,0,0,0,0,0,0,0,0,0],"id":32,"left_children":[1,3,5,7,9,11,13,-1,-1,-1,-1,-1,-1,-1,-1],"loss_changes":[7.1689713E-1,2.2774644E0,2.5541027E0,2.2927344E0,1.3084733E0,1.0490737E0,2.5370502E0,0E0,0E0,0E0,0E0,0E0,0E0,0E0,0E0],"parents":[2147483647,0,0,1,1,2,2,3,3,4,4,5,5,6,6],"right_children":[2,4,6,8,10,12,14,-1,-1,-1,-1,-1,-1,-1,-1],"split_conditions":[4.042E3,3.496E3,5.302E3,3.342E3,3.1E1,1E0,6.458E3,-1.3917538E-2,2.4558099E-1,-2.9640326E-1,-3.481032E-2,1.9492029E-1,-7.1517706E-2,-1.912165E-1,3.9889317E-2],"split_indices":[1,1,1,1,4,23,1,0,0,0,0,0,0,0,0],"split_type":[0,0,0,0,0,0,0,0,0,0,0,0,0,0,0],"sum_hessian":[1.0460227E2,7.6555534E1,2.8046736E1,7.0021095E1,6.53444E0,8.908261E0,1.9138475E1,6.781393E1,2.2071679E0,2.9339938E0,3.6004462E0,7.870974E0,1.0372872E0,4.979114E0,1.4159361E1],"tree_param":{"num_deleted":"0","num_feature":"48","num_nodes":"15","size_leaf_vector":"1"}},{"base_weights":[-1.20536955E-2,3.476628E-2,-1.579284E-1,6.586141E-2,-3.818699E-1,-5.5515163E-2,-2.4457724E-1,8.6410895E-2,-5.3353617E-3,1.5236126E-1,-2.2759314E-1,-1.1726248E-1,2.5638184E-2],"categories":[],"categories_nodes":[],"categories_segments":[],"categories_sizes":[],"default_left":[0,0,0,0,0,0,0,0,0,0,0,0,0],"id":33,"left_children":[1,3,5,7,9,11,-1,-1,-1,-1,-1,-1,-1],"loss_changes":[7.22593E-1,1.0655135E0,1.6842822E0,1.4096936E0,2.3042312E0,1.1350429E0,0E0,0E0,0E0,0E0,0E0,0E0,0E0],"parents":[2147483647,0,0,1,1,2,2,3,3,4,4,5,5],"right_children":[2,4,6,8,10,12,-1,-1,-1,-1,-1,-1,-1],"split_conditions":[1E0,1E0,1E0,1.374E3,1E0,1.526E3,-2.4457724E-1,8.6410895E-2,-5.3353617E-3,1.5236126E-1,-2.2759314E-1,-1.1726248E-1,2.5638184E-2],"split_indices":[9,35,29,1,40,1,0,0,0,0,0,0,0],"split_type":[0,0,0,0,0,0,0,0,0,0,0,0,0],"sum_hessian":[1.0399533E2,7.930368E1,2.4691652E1,7.457945E1,4.7242255E0,2.2301489E1,2.3901632E0,1.9730108E1,5.4849342E1,1.3018938E0,3.4223318E0,6.0756974E0,1.6225792E1],"tree_param":{"num_deleted":"0","num_feature":"48","num_nodes":"13","size_leaf_vector":"1"}},{"base_weights":[-1.2804682E-2,1.0527608E-2,-2.624824E-1,-5.3803287E-2,1.4633386E-1,-3.0846518E-1,3.5594266E-2,4.2082365E-3,-1.3073386E-1,7.047409E-2,-1.7994946E-1,9.1617435E-2,-2.1965085E-1],"categories":[],"categories_nodes":[],"categories_segments":[],"categories_sizes":[],"default_left":[0,0,0,0,0,0,0,0,0,0,0,0,0],"id":34,"left_children":[1,3,5,7,9,-1,11,-1,-1,-1,-1,-1,-1],"loss_changes":[6.0927564E-1,8.4811914E-1,2.0762963E0,1.7159731E0,2.2019603E0,0E0,1.7562187E0,0E0,0E0,0E0,0E0,0E0,0E0],"parents":[2147483647,0,0,1,1,2,2,3,3,4,4,6,6],"right_children":[2,4,6,8,10,-1,12,-1,-1,-1,-1,-1,-1],"split_conditions":[1E0,1E0,2.5E1,1E0,1E0,-3.0846518E-1,1E0,4.2082365E-3,-1.3073386E-1,7.047409E-2,-1.7994946E-1,9.1617435E-2,-2.1965085E-1],"split_indices":[8,31,4,23,29,0,36,0,0,0,0,0,0],"split_type":[0,0,0,0,0,0,0,0,0,0,0,0,0],"sum_hessian":[1.0311241E2,9.517608E1,7.936334E0,6.499298E1,3.01831E1,1.5373921E0,6.398942E0,5.6010075E1,8.982904E0,2.7592655E1,2.5904431E0,5.180658E0,1.2182844E0],"tree_param":{"num_deleted":"0","num_feature":"48","num_nodes":"13","size_leaf_vector":"1"}},{"base_weights":[-1.6295955E-2,1.5410172E-3,-3.6934483E-1,3.7933633E-2,-2.3238203E-1,-6.62947E-1,1.07989885E-1,8.555298E-2,-9.18761E-3,-2.0462102E-1,8.175808E-3,-2.5073928E-1,-4.1638948E-2],"categories":[],"categories_nodes":[],"categories_segments":[],"categories_sizes":[],"default_left":[0,0,0,0,0,0,0,0,0,0,0,0,0],"id":35,"left_children":[1,3,5,7,9,11,-1,-1,-1,-1,-1,-1,-1],"loss_changes":[6.5339345E-1,8.573739E-1,1.3070906E0,1.4854354E0,1.601766E0,2.3819399E-1,0E0,0E0,0E0,0E0,0E0,0E0,0E0],"parents":[2147483647,0,0,1,1,2,2,3,3,4,4,5,5],"right_children":[2,4,6,8,10,12,-1,-1,-1,-1,-1,-1,-1],"split_conditions":[1E0,1E0,2E0,1E0,3.7E1,1E0,1.07989885E-1,8.555298E-2,-9.18761E-3,-2.0462102E-1,8.175808E-3,-2.5073928E-1,-4.1638948E-2],"split_indices":[25,42,6,41,4,7,0,0,0,0,0,0,0],"split_type":[0,0,0,0,0,0,0,0,0,0,0,0,0],"sum_hessian":[1.0266696E2,9.867716E1,3.9897985E0,8.611729E1,1.2559874E1,2.9095023E0,1.0802963E0,1.8009695E1,6.810759E1,4.0017667E0,8.558106E0,1.7408439E0,1.1686584E0],"tree_param":{"num_deleted":"0","num_feature":"48","num_nodes":"13","size_leaf_vector":"1"}},{"base_weights":[-1.4892417E-2,-4.8431059E-4,-4.5324007E-1,5.9906214E-2,-1.1399806E-1,-3.9922167E-2,-1.7706628E-1,4.513769E-2,-7.686968E-2,2.333647E-2,-1.4148292E-1],"categories":[],"categories_nodes":[],"categories_segments":[],"categories_sizes":[],"default_left":[0,0,0,0,0,0,0,0,0,0,0],"id":36,"left_children":[1,3,5,7,9,-1,-1,-1,-1,-1,-1],"loss_changes":[6.518394E-1,6.989167E-1,6.550205E-2,1.9438361E0,2.464849E0,0E0,0E0,0E0,0E0,0E0,0E0],"parents":[2147483647,0,0,1,1,2,2,3,3,4,4],"right_children":[2,4,6,8,10,-1,-1,-1,-1,-1,-1],"split_conditions":[1E0,1E0,1E0,1E0,4E0,-3.9922167E-2,-1.7706628E-1,4.513769E-2,-7.686968E-2,2.333647E-2,-1.4148292E-1],"split_indices":[47,7,32,13,3,0,0,0,0,0,0],"split_type":[0,0,0,0,0,0,0,0,0,0,0],"sum_hessian":[1.0224314E2,9.9958694E1,2.2844505E0,6.555499E1,3.44037E1,1.2752588E0,1.0091918E0,5.1366085E1,1.418891E1,2.2903229E1,1.150047E1],"tree_param":{"num_deleted":"0","num_feature":"48","num_nodes":"11","size_leaf_vector":"1"}},{"base_weights":[-1.4585743E-2,-6.697303E-2,1.13589264E-1,-2.788071E-2,-2.7249676E-1,2.2901651E-1,3.512109E-2,1.914512E-2,-6.691175E-2,1.2972821E-1,-5.1622093E-2],"categories":[],"categories_nodes":[],"categories_segments":[],"categories_sizes":[],"default_left":[0,0,0,0,0,0,0,0,0,0,0],"id":37,"left_children":[1,3,5,7,-1,-1,9,-1,-1,-1,-1],"loss_changes":[6.9816685E-1,2.396498E0,1.5135009E0,1.2919006E0,0E0,0E0,2.3795516E0,0E0,0E0,0E0,0E0],"parents":[2147483647,0,0,1,1,2,2,3,3,6,6],"right_children":[2,4,6,8,-1,-1,10,-1,-1,-1,-1],"split_conditions":[3.914E3,3.622E3,1.8E1,1E0,-2.7249676E-1,2.2901651E-1,2.9E1,1.914512E-2,-6.691175E-2,1.2972821E-1,-5.1622093E-2],"split_indices":[1,1,0,46,0,0,4,0,0,0,0],"split_type":[0,0,0,0,0,0,0,0,0,0,0],"sum_hessian":[1.0184231E2,7.263333E1,2.9208979E1,7.0395615E1,2.237712E0,2.2066832E0,2.7002296E1,4.83505E1,2.204512E1,8.882534E0,1.8119762E1],"tree_param":{"num_deleted":"0","num_feature":"48","num_nodes":"11","size_leaf_vector":"1"}},{"base_weights":[-1.117301E-2,-2.4606481E-2,4.2091876E-1,1.993933E-3,-3.158414E-1,2.3320427E-2,1.6798626E-1,8.430097E-3,-1.1084647E-1,-2.1564005E-1,2.4224948E-2],"categories":[],"categories_nodes":[],"categories_segments":[],"categories_sizes":[],"default_left":[0,0,0,0,0,0,0,0,0,0,0],"id":38,"left_children":[1,3,5,7,9,-1,-1,-1,-1,-1,-1],"loss_changes":[6.0375404E-1,7.7604645E-1,1.0618591E-1,9.09486E-1,1.3977761E0,0E0,0E0,0E0,0E0,0E0,0E0],"parents":[2147483647,0,0,1,1,2,2,3,3,4,4],"right_children":[2,4,6,8,10,-1,-1,-1,-1,-1,-1],"split_conditions":[1.156E4,1E0,1E0,1E0,3E0,2.3320427E-2,1.6798626E-1,8.430097E-3,-1.1084647E-1,-2.1564005E-1,2.4224948E-2],"split_indices":[1,14,28,24,2,0,0,0,0,0,0],"split_type":[0,0,0,0,0,0,0,0,0,0,0],"sum_hessian":[1.012306E2,9.909291E1,2.1376858E0,9.170962E1,7.3832927E0,1.0658721E0,1.0718137E0,8.655146E1,5.15816E0,3.259259E0,4.124034E0],"tree_param":{"num_deleted":"0","num_feature":"48","num_nodes":"11","size_leaf_vector":"1"}},{"base_weights":[-9.283316E-3,-1.709824E-1,2.2885669E-2,-5.865553E-1,1.5239787E-1,-7.4224346E-3,4.5040148E-1,-2.5609443E-1,-3.0317223E-2,1.1408106E-1,-7.224624E-2,1.2863932E-2,-9.943277E-2,2.7516377E-1,-1.8962269E-1],"categories":[],"categories_nodes":[],"categories_segments":[],"categories_sizes":[],"default_left":[0,0,0,0,0,0,0,0,0,0,0,0,0,0,0],"id":39,"left_children":[1,3,5,7,9,11,13,-1,-1,-1,-1,-1,-1,-1,-1],"loss_changes":[5.3346086E-1,2.375391E0,1.114973E0,9.057741E-1,1.0198805E0,1.3360026E0,3.4578567E0,0E0,0E0,0E0,0E0,0E0,0E0,0E0,0E0],"parents":[2147483647,0,0,1,1,2,2,3,3,4,4,5,5,6,6],"right_children":[2,4,6,8,10,12,14,-1,-1,-1,-1,-1,-1,-1,-1],"split_conditions":[2.5E1,1.8E1,1E0,1E0,3.496E3,1E0,4.2E1,-2.5609443E-1,-3.0317223E-2,1.1408106E-1,-7.224624E-2,1.2863932E-2,-9.943277E-2,2.7516377E-1,-1.8962269E-1],"split_indices":[4,0,20,27,1,23,4,0,0,0,0,0,0,0,0],"split_type":[0,0,0,0,0,0,0,0,0,0,0,0,0,0,0],"sum_hessian":[1.0080293E2,1.6010447E1,8.479249E1,6.650337E0,9.360109E0,8.009678E1,4.695705E0,3.80097E0,2.8493671E0,5.946823E0,3.4132862E0,7.0084274E1,1.0012506E1,3.3875284E0,1.3081764E0],"tree_param":{"num_deleted":"0","num_feature":"48","num_nodes":"15","size_leaf_vector":"1"}},{"base_weights":[-9.384635E-3,3.353545E-2,-1.4516886E-1,-1.6735905E-1,5.5284586E-2,-6.29937E-2,-2.2325341E-1,1.4069796E-1,5.7866203E-4,1.7345857E-2,-1.0745237E-1],"categories":[],"categories_nodes":[],"categories_segments":[],"categories_sizes":[],"default_left":[0,0,0,0,0,0,0,0,0,0,0],"id":40,"left_children":[1,3,5,-1,7,9,-1,-1,-1,-1,-1],"loss_changes":[5.953551E-1,1.0315223E0,1.1602015E0,0E0,1.6755731E0,8.2868195E-1,0E0,0E0,0E0,0E0,0E0],"parents":[2147483647,0,0,1,1,2,2,4,4,5,5],"right_children":[2,4,6,-1,8,10,-1,-1,-1,-1,-1],"split_conditions":[1E0,6.09E2,1E0,-1.6735905E-1,9.75E2,1E0,-2.2325341E-1,1.4069796E-1,5.7866203E-4,1.7345857E-2,-1.0745237E-1],"split_indices":[9,1,29,0,1,13,0,0,0,0,0],"split_type":[0,0,0,0,0,0,0,0,0,0,0],"sum_hessian":[1.003212E2,7.679884E1,2.352235E1,1.8497883E0,7.494906E1,2.1656555E1,1.8657947E0,7.672012E0,6.727705E1,1.5937636E1,5.71892E0],"tree_param":{"num_deleted":"0","num_feature":"48","num_nodes":"11","size_leaf_vector":"1"}},{"base_weights":[-1.0533732E-2,-5.8333147E-2,1.0542533E-1,-2.6923928E-2,-2.4225733E-1,5.601593E-1,1.2957025E-2,1.5906943E-2,-6.6066794E-2,-1.6640514E-2,2.5005856E-1,2.2825064E-1,-2.5448222E-2],"categories":[],"categories_nodes":[],"categories_segments":[],"categories_sizes":[],"default_left":[0,0,0,0,0,0,0,0,0,0,0,0,0],"id":41,"left_children":[1,3,5,7,-1,9,11,-1,-1,-1,-1,-1,-1],"loss_changes":[5.6384796E-1,1.6699812E0,1.2426465E0,1.0939523E0,0E0,8.876047E-1,1.9458972E0,0E0,0E0,0E0,0E0,0E0,0E0],"parents":[2147483647,0,0,1,1,2,2,3,3,5,5,6,6],"right_children":[2,4,6,8,-1,10,12,-1,-1,-1,-1,-1,-1],"split_conditions":[3.914E3,3.622E3,4.272E3,3.8E1,-2.4225733E-1,3E1,1.8E1,1.5906943E-2,-6.6066794E-2,-1.6640514E-2,2.5005856E-1,2.2825064E-1,-2.5448222E-2],"split_indices":[1,1,1,4,0,4,0,0,0,0,0,0,0],"split_type":[0,0,0,0,0,0,0,0,0,0,0,0,0],"sum_hessian":[9.961713E1,7.089181E1,2.872532E1,6.903357E1,1.8582377E0,3.9994178E0,2.4725903E1,4.934889E1,1.968468E1,1.4749415E0,2.5244763E0,2.0750082E0,2.2650894E1],"tree_param":{"num_deleted":"0","num_feature":"48","num_nodes":"13","size_leaf_vector":"1"}},{"base_weights":[-6.508725E-3,-1.9861797E-2,4.161969E-1,-1.1924726E-1,3.8838595E-2,3.2316048E-2,1.5592526E-1,-8.781645E-3,-1.639535E-1,-1.2388867E-1,3.2893118E-2],"categories":[],"categories_nodes":[],"categories_segments":[],"categories_sizes":[],"default_left":[0,0,0,0,0,0,0,0,0,0,0],"id":42,"left_children":[1,3,5,7,9,-1,-1,-1,-1,-1,-1],"loss_changes":[5.732916E-1,5.7631576E-1,4.338795E-2,1.3922598E0,2.0401704E0,0E0,0E0,0E0,0E0,0E0,0E0],"parents":[2147483647,0,0,1,1,2,2,3,3,4,4],"right_children":[2,4,6,8,10,-1,-1,-1,-1,-1,-1],"split_conditions":[1.156E4,3E0,1E0,7.228E3,2E0,3.2316048E-2,1.5592526E-1,-8.781645E-3,-1.639535E-1,-1.2388867E-1,3.2893118E-2],"split_indices":[1,2,28,1,3,0,0,0,0,0,0],"split_type":[0,0,0,0,0,0,0,0,0,0,0],"sum_hessian":[9.910334E1,9.699241E1,2.110932E0,3.5632195E1,6.1360218E1,1.0432945E0,1.0676374E0,3.0316526E1,5.3156686E0,7.6586595E0,5.3701557E1],"tree_param":{"num_deleted":"0","num_feature":"48","num_nodes":"11","size_leaf_vector":"1"}},{"base_weights":[-5.590051E-3,-3.260627E-2,2.7567512E-1,-5.502528E-3,-2.154096E-1,6.886189E-1,-3.45121E-1,-9.160523E-3,2.392983E-1,2.9332942E-1,4.680342E-2,1.15298666E-1,-2.1972509E-1],"categories":[],"categories_nodes":[],"categories_segments":[],"categories_sizes":[],"default_left":[0,0,0,0,0,0,0,0,0,0,0,0,0],"id":43,"left_children":[1,3,5,7,-1,9,11,-1,-1,-1,-1,-1,-1],"loss_changes":[7.6787794E-1,1.7054248E0,2.5084202E0,1.8241844E0,0E0,7.180793E-1,1.4693379E0,0E0,0E0,0E0,0E0,0E0,0E0],"parents":[2147483647,0,0,1,1,2,2,3,3,5,5,6,6],"right_children":[2,4,6,8,-1,10,12,-1,-1,-1,-1,-1,-1],"split_conditions":[7.763E3,7.228E3,3.9E1,6.742E3,-2.154096E-1,1E0,2.8E1,-9.160523E-3,2.392983E-1,2.9332942E-1,4.680342E-2,1.15298666E-1,-2.1972509E-1],"split_indices":[1,1,0,1,0,37,4,0,0,0,0,0,0],"split_type":[0,0,0,0,0,0,0,0,0,0,0,0,0],"sum_hessian":[9.887065E1,9.1012726E1,7.857925E0,8.85204E1,2.4923277E0,4.6533437E0,3.2045817E0,8.677774E1,1.7426583E0,2.4742804E0,2.179063E0,1.1140302E0,2.0905514E0],"tree_param":{"num_deleted":"0","num_feature":"48","num_nodes":"13","size_leaf_vector":"1"}},{"base_weights":[-1.5112347E-3,1.9463558E-2,-2.571997E-1,-8.157916E-3,3.4997302E-1,3.6380675E-1,-5.980297E-1,-1.1762109E-2,1.0631224E-1,1.7846762E-1,-1.3073224E-1,-1.2980826E-2,1.718387E-1,-3.1740326E-1,1.7031246E-3],"categories":[],"categories_nodes":[],"categories_segments":[],"categories_sizes":[],"default_left":[0,0,0,0,0,0,0,0,0,0,0,0,0,0,0],"id":44,"left_children":[1,3,5,7,9,11,13,-1,-1,-1,-1,-1,-1,-1,-1],"loss_changes":[5.376887E-1,8.4935373E-1,1.8262794E0,9.8813087E-1,1.6398993E0,3.0680916E-1,1.473758E0,0E0,0E0,0E0,0E0,0E0,0E0,0E0,0E0],"parents":[2147483647,0,0,1,1,2,2,3,3,4,4,5,5,6,6],"right_children":[2,4,6,8,10,12,14,-1,-1,-1,-1,-1,-1,-1,-1],"split_conditions":[1E0,1E0,2.108E3,7.98E3,3.3E1,1.223E3,4.042E3,-1.1762109E-2,1.0631224E-1,1.7846762E-1,-1.3073224E-1,-1.2980826E-2,1.718387E-1,-3.1740326E-1,1.7031246E-3],"split_indices":[39,10,1,1,0,1,1,0,0,0,0,0,0,0,0],"split_type":[0,0,0,0,0,0,0,0,0,0,0,0,0,0,0],"sum_hessian":[9.8325264E1,9.1724724E1,6.60054E0,8.555039E1,6.1743355E0,2.315035E0,4.2855053E0,7.9622925E1,5.9274654E0,4.892294E0,1.2820415E0,1.0543303E0,1.2607048E0,2.0051787E0,2.2803264E0],"tree_param":{"num_deleted":"0","num_feature":"48","num_nodes":"15","size_leaf_vector":"1"}},{"base_weights":[-1.389609E-3,1.3860188E-2,-3.4912595E-1,-5.980614E-3,2.0257828E-1,2.4596596E-2,-2.3396477E-1,7.608163E-3,-7.5298615E-2],"categories":[],"categories_nodes":[],"categories_segments":[],"categories_sizes":[],"default_left":[0,0,0,0,0,0,0,0,0],"id":45,"left_children":[1,3,5,7,-1,-1,-1,-1,-1],"loss_changes":[5.281396E-1,1.2572294E0,8.409352E-1,7.259511E-1,0E0,0E0,0E0,0E0,0E0],"parents":[2147483647,0,0,1,1,2,2,3,3],"right_children":[2,4,6,8,-1,-1,-1,-1,-1],"split_conditions":[6.2E1,5.8E1,1E0,1E0,2.0257828E-1,2.4596596E-2,-2.3396477E-1,7.608163E-3,-7.5298615E-2],"split_indices":[4,4,13,22,0,0,0,0,0],"split_type":[0,0,0,0,0,0,0,0,0],"sum_hessian":[9.768181E1,9.44978E1,3.1840105E0,9.2707695E1,1.7901024E0,1.9960076E0,1.1880028E0,8.298866E1,9.719033E0],"tree_param":{"num_deleted":"0","num_feature":"48","num_nodes":"9","size_leaf_vector":"1"}},{"base_weights":[-1.8760961E-3,-3.6375843E-2,1.3535103E-1,-2.2883539E-1,6.2455535E-2,6.5112484E-1,-1.4909674E-1,-3.261172E-2,-2.718055E-1,1.16368495E-1,-1.6252043E-2,2.0252705E-2,3.1992027E-1,1.8863519E-1,-1.1089431E-1],"categories":[],"categories_nodes":[],"categories_segments":[],"categories_sizes":[],"default_left":[0,0,0,0,0,0,0,0,0,0,0,0,0,0,0],"id":46,"left_children":[1,3,5,7,9,11,13,-1,-1,-1,-1,-1,-1,-1,-1],"loss_changes":[4.712884E-1,1.5265744E0,3.031575E0,2.113387E0,2.0446596E0,1.6963336E0,2.583808E0,0E0,0E0,0E0,0E0,0E0,0E0,0E0,0E0],"parents":[2147483647,0,0,1,1,2,2,3,3,4,4,5,5,6,6],"right_children":[2,4,6,8,10,12,14,-1,-1,-1,-1,-1,-1,-1,-1],"split_conditions":[3.6E1,2.8E1,2.9E1,1E0,1.288E3,1E0,2.753E3,-3.261172E-2,-2.718055E-1,1.16368495E-1,-1.6252043E-2,2.0252705E-2,3.1992027E-1,1.8863519E-1,-1.1089431E-1],"split_indices":[0,4,4,13,1,46,1,0,0,0,0,0,0,0,0],"split_type":[0,0,0,0,0,0,0,0,0,0,0,0,0,0,0],"sum_hessian":[9.750766E1,7.850575E1,1.900191E1,2.618972E1,5.2316032E1,6.296223E0,1.2705686E1,2.3229435E1,2.9602864E0,1.3188684E1,3.9127346E1,3.1008923E0,3.195331E0,2.3977785E0,1.0307907E1],"tree_param":{"num_deleted":"0","num_feature":"48","num_nodes":"15","size_leaf_vector":"1"}},{"base_weights":[5.7198794E-4,-2.2134435E-1,2.5983771E-2,8.6757585E-2,-6.804988E-1,1.9899127E-1,-3.3758904E-4,1.3864426E-1,-1.932126E-1,-3.0517447E-1,-4.876794E-2,-8.099344E-2,9.827903E-3],"categories":[],"categories_nodes":[],"categories_segments":[],"categories_sizes":[],"default_left":[0,0,0,0,0,0,0,0,0,0,0,0,0],"id":47,"left_children":[1,3,5,7,9,-1,11,-1,-1,-1,-1,-1,-1],"loss_changes":[5.5635023E-1,1.4930423E0,1.4848152E0,2.205121E0,5.6432223E-1,0E0,7.762407E-1,0E0,0E0,0E0,0E0,0E0,0E0],"parents":[2147483647,0,0,1,1,2,2,3,3,4,4,6,6],"right_children":[2,4,6,8,10,-1,12,-1,-1,-1,-1,-1,-1],"split_conditions":[8.74E2,1E0,9.58E2,1E0,1E0,1.9899127E-1,1.264E3,1.3864426E-1,-1.932126E-1,-3.0517447E-1,-4.876794E-2,-8.099344E-2,9.827903E-3],"split_indices":[1,28,1,46,32,0,1,0,0,0,0,0,0],"split_type":[0,0,0,0,0,0,0,0,0,0,0,0,0],"sum_hessian":[9.663621E1,9.136712E0,8.74995E1,5.953106E0,3.1836057E0,2.5105758E0,8.498892E1,4.1757574E0,1.7773483E0,1.3450567E0,1.8385491E0,8.509079E0,7.647984E1],"tree_param":{"num_deleted":"0","num_feature":"48","num_nodes":"13","size_leaf_vector":"1"}},{"base_weights":[-2.7948692E-3,-3.0164117E-1,1.5840983E-2,-5.691961E-1,9.2362784E-2,-4.456164E-2,1.3064055E-1,-4.1684713E-3,-2.3608203E-1,5.904468E-2,-3.692899E-2,1.4278063E-1,-7.2785467E-3],"categories":[],"categories_nodes":[],"categories_segments":[],"categories_sizes":[],"default_left":[0,0,0,0,0,0,0,0,0,0,0,0,0],"id":48,"left_children":[1,3,5,7,-1,9,11,-1,-1,-1,-1,-1,-1],"loss_changes":[5.472052E-1,1.1157155E0,6.4813375E-1,5.1609814E-1,0E0,1.1889254E0,1.7332563E0,0E0,0E0,0E0,0E0,0E0,0E0],"parents":[2147483647,0,0,1,1,2,2,3,3,5,5,6,6],"right_children":[2,4,6,8,-1,10,12,-1,-1,-1,-1,-1,-1],"split_conditions":[9E0,1E0,2E0,1E0,9.2362784E-2,1.374E3,1E0,-4.1684713E-3,-2.3608203E-1,5.904468E-2,-3.692899E-2,1.4278063E-1,-7.2785467E-3],"split_indices":[0,36,5,41,0,1,41,0,0,0,0,0,0],"split_type":[0,0,0,0,0,0,0,0,0,0,0,0,0],"sum_hessian":[9.639666E1,4.766972E0,9.1629684E1,3.3587573E0,1.4082149E0,6.0440376E1,3.118931E1,1.2457074E0,2.11305E0,1.44677305E1,4.5972645E1,9.0169735E0,2.2172337E1],"tree_param":{"num_deleted":"0","num_feature":"48","num_nodes":"13","size_leaf_vector":"1"}},{"base_weights":[-2.3530843E-3,-2.139383E-1,2.260004E-2,5.5134073E-2,-6.199201E-1,5.6156725E-1,1.0372939E-3,1.2394911E-1,-1.5233396E-1,-2.7807033E-1,-4.1044846E-2,2.3081306E-1,1.7212199E-2,5.4521677E-3,-1.6247779E-1],"categories":[],"categories_nodes":[],"categories_segments":[],"categories_sizes":[],"default_left":[0,0,0,0,0,0,0,0,0,0,0,0,0,0,0],"id":49,"left_children":[1,3,5,7,9,11,13,-1,-1,-1,-1,-1,-1,-1,-1],"loss_changes":[5.151787E-1,1.1585295E0,1.0147818E0,1.6424171E0,4.9372458E-1,3.0781043E-1,8.0033225E-1,0E0,0E0,0E0,0E0,0E0,0E0,0E0,0E0],"parents":[2147483647,0,0,1,1,2,2,3,3,4,4,5,5,6,6],"right_children":[2,4,6,8,10,12,14,-1,-1,-1,-1,-1,-1,-1,-1],"split_conditions":[8.88E2,1E0,9.75E2,3.8E1,1E0,3.1E1,1E0,1.2394911E-1,-1.5233396E-1,-2.7807033E-1,-4.1044846E-2,2.3081306E-1,1.7212199E-2,5.4521677E-3,-1.6247779E-1],"split_indices":[1,28,1,4,32,4,47,0,0,0,0,0,0,0,0],"split_type":[0,0,0,0,0,0,0,0,0,0,0,0,0,0,0],"sum_hessian":[9.566126E1,9.292625E0,8.636864E1,6.1083755E0,3.1842496E0,2.3590899E0,8.4009544E1,3.8962646E0,2.2121108E0,1.3853277E0,1.798922E0,1.2981038E0,1.060986E0,8.237461E1,1.6349349E0],"tree_param":{"num_deleted":"0","num_feature":"48","num_nodes":"15","size_leaf_vector":"1"}},{"base_weights":[-4.6239262E-3,-1.7692111E-1,2.92479E-2,-5.5038166E-1,1.0479301E-1,4.014793E-1,-4.468055E-3,-2.3972632E-1,-3.5794776E-2,1.0139508E-1,-7.363531E-2,-5.2766774E-2,1.9917811E-1,-4.5881454E-2,2.3544803E-2],"categories":[],"categories_nodes":[],"categories_segments":[],"categories_sizes":[],"default_left":[0,0,0,0,0,0,0,0,0,0,0,0,0,0,0],"id":50,"left_children":[1,3,5,7,9,11,13,-1,-1,-1,-1,-1,-1,-1,-1],"loss_changes":[5.670271E-1,1.7366812E0,1.0223017E0,6.574683E-1,8.9453286E-1,1.1418079E0,9.4245315E-1,0E0,0E0,0E0,0E0,0E0,0E0,0E0,0E0],"parents":[2147483647,0,0,1,1,2,2,3,3,4,4,5,5,6,6],"right_children":[2,4,6,8,10,12,14,-1,-1,-1,-1,-1,-1,-1,-1],"split_conditions":[2.5E1,1.8E1,2.6E1,1E0,1E0,1.449E3,3E0,-2.3972632E-1,-3.5794776E-2,1.0139508E-1,-7.363531E-2,-5.2766774E-2,1.9917811E-1,-4.5881454E-2,2.3544803E-2],"split_indices":[4,0,4,27,46,1,2,0,0,0,0,0,0,0,0],"split_type":[0,0,0,0,0,0,0,0,0,0,0,0,0,0,0],"sum_hessian":[9.527322E1,1.495874E1,8.0314476E1,6.0219374E0,8.936802E0,5.7645802E0,7.45499E1,3.277319E0,2.7446184E0,5.3859034E0,3.550899E0,1.9045348E0,3.8600454E0,2.641932E1,4.813058E1],"tree_param":{"num_deleted":"0","num_feature":"48","num_nodes":"15","size_leaf_vector":"1"}},{"base_weights":[-5.02079E-3,-4.920456E-2,1.0331348E-1,-2.1935994E-2,-2.2180897E-1,5.3636706E-1,1.255625E-2,8.785217E-3,-1.1437116E-1,1.9088365E-2,2.4590307E-1,1.8194698E-1,-2.0961093E-2],"categories":[],"categories_nodes":[],"categories_segments":[],"categories_sizes":[],"default_left":[0,0,0,0,0,0,0,0,0,0,0,0,0],"id":51,"left_children":[1,3,5,7,-1,9,11,-1,-1,-1,-1,-1,-1],"loss_changes":[4.6398768E-1,1.2781199E0,1.0975304E0,1.247735E0,0E0,5.9662473E-1,1.2296683E0,0E0,0E0,0E0,0E0,0E0,0E0],"parents":[2147483647,0,0,1,1,2,2,3,3,5,5,6,6],"right_children":[2,4,6,8,-1,10,12,-1,-1,-1,-1,-1,-1],"split_conditions":[3.914E3,3.622E3,4.272E3,1E0,-2.2180897E-1,4.042E3,1.8E1,8.785217E-3,-1.1437116E-1,1.9088365E-2,2.4590307E-1,1.8194698E-1,-2.0961093E-2],"split_indices":[1,1,1,29,0,1,0,0,0,0,0,0,0],"split_type":[0,0,0,0,0,0,0,0,0,0,0,0,0],"sum_hessian":[9.4872345E1,6.7775955E1,2.709639E1,6.619244E1,1.5835177E0,3.8441048E0,2.3252285E1,5.8737614E1,7.4548216E0,1.8993616E0,1.9447432E0,2.058877E0,2.1193409E1],"tree_param":{"num_deleted":"0","num_feature":"48","num_nodes":"13","size_leaf_vector":"1"}},{"base_weights":[-2.9025143E-3,3.7130635E-2,-1.2856422E-1,-1.5684159E-1,5.749886E-2,-5.759331E-2,-2.0866604E-1,-1.9306267E-2,4.8805572E-2,-1.0389436E-1,1.8436221E-2],"categories":[],"categories_nodes":[],"categories_segments":[],"categories_sizes":[],"default_left":[0,0,0,0,0,0,0,0,0,0,0],"id":52,"left_children":[1,3,5,-1,7,9,-1,-1,-1,-1,-1],"loss_changes":[4.8482555E-1,8.642842E-1,8.9670897E-1,0E0,9.2664355E-1,7.698996E-1,0E0,0E0,0E0,0E0,0E0],"parents":[2147483647,0,0,1,1,2,2,4,4,5,5],"right_children":[2,4,6,-1,8,10,-1,-1,-1,-1,-1],"split_conditions":[1E0,6.09E2,1E0,-1.5684159E-1,3.1E1,1.526E3,-2.0866604E-1,-1.9306267E-2,4.8805572E-2,-1.0389436E-1,1.8436221E-2],"split_indices":[9,1,29,0,4,1,0,0,0,0,0],"split_type":[0,0,0,0,0,0,0,0,0,0,0],"sum_hessian":[9.442573E1,7.214605E1,2.2279678E1,1.6664537E0,7.047959E1,2.078017E1,1.4995085E0,3.283273E1,3.7646866E1,5.5093937E0,1.5270777E1],"tree_param":{"num_deleted":"0","num_feature":"48","num_nodes":"11","size_leaf_vector":"1"}},{"base_weights":[-7.051283E-3,1.3766828E-2,-2.3151927E-1,2.9546082E-2,-3.73148E-1,3.3889282E-1,-5.2429104E-1,2.4699863E-2,-4.1966233E-2,-1.3697803E-1,-2.876438E-2,1.7116229E-1,-2.9186768E-2,-2.4396849E-1,4.645268E-2],"categories":[],"categories_nodes":[],"categories_segments":[],"categories_sizes":[],"default_left":[0,0,0,0,0,0,0,0,0,0,0,0,0,0,0],"id":53,"left_children":[1,3,5,7,9,11,13,-1,-1,-1,-1,-1,-1,-1,-1],"loss_changes":[4.4734138E-1,5.4782027E-1,1.5342271E0,7.753694E-1,3.7629813E-2,3.952601E-1,1.2562851E0,0E0,0E0,0E0,0E0,0E0,0E0,0E0,0E0],"parents":[2147483647,0,0,1,1,2,2,3,3,4,4,5,5,6,6],"right_children":[2,4,6,8,10,12,14,-1,-1,-1,-1,-1,-1,-1,-1],"split_conditions":[1E0,6.2E1,1E0,1E0,1E0,1.344E3,1E0,2.4699863E-2,-4.1966233E-2,-1.3697803E-1,-2.876438E-2,1.7116229E-1,-2.9186768E-2,-2.4396849E-1,4.645268E-2],"split_indices":[8,4,11,17,7,1,43,0,0,0,0,0,0,0,0],"split_type":[0,0,0,0,0,0,0,0,0,0,0,0,0,0,0],"sum_hessian":[9.404689E1,8.6923874E1,7.1230187E0,8.440527E1,2.5185997E0,2.36253E0,4.7604885E0,6.474738E1,1.9657892E1,1.4388126E0,1.079787E0,1.3418593E0,1.0206705E0,3.2011216E0,1.5593672E0],"tree_param":{"num_deleted":"0","num_feature":"48","num_nodes":"15","size_leaf_vector":"1"}},{"base_weights":[-7.86396E-3,6.6250437E-3,-3.153773E-1,6.238773E-2,-1.0196201E-1,5.619748E-2,-1.9887379E-1,-5.346842E-2,6.2051393E-2,-6.741821E-2,1.2171066E-1],"categories":[],"categories_nodes":[],"categories_segments":[],"categories_sizes":[],"default_left":[0,0,0,0,0,0,0,0,0,0,0],"id":54,"left_children":[1,3,5,7,9,-1,-1,-1,-1,-1,-1],"loss_changes":[4.246438E-1,5.607036E-1,8.733119E-1,2.160791E0,2.0507329E0,0E0,0E0,0E0,0E0,0E0,0E0],"parents":[2147483647,0,0,1,1,2,2,3,3,4,4],"right_children":[2,4,6,8,10,-1,-1,-1,-1,-1,-1],"split_conditions":[1E0,1E0,1.8E1,1.8E1,1E0,5.619748E-2,-1.9887379E-1,-5.346842E-2,6.2051393E-2,-6.741821E-2,1.2171066E-1],"split_indices":[25,7,0,0,16,0,0,0,0,0,0],"split_type":[0,0,0,0,0,0,0,0,0,0,0],"sum_hessian":[9.383752E1,9.054958E1,3.2879386E0,6.010786E1,3.044172E1,1.5323777E0,1.7555608E0,2.2460608E1,3.7647255E1,2.4962517E1,5.4792037E0],"tree_param":{"num_deleted":"0","num_feature":"48","num_nodes":"11","size_leaf_vector":"1"}},{"base_weights":[-6.8397834E-3,3.1223206E-2,-1.2706634E-1,5.3771622E-2,-3.838134E-1,-6.458712E-2,-1.9528253E-1,6.9773844E-3,1.3054363E-1,-1.9828251E-1,2.2142231E-2,5.454265E-2,-5.4749485E-2],"categories":[],"categories_nodes":[],"categories_segments":[],"categories_sizes":[],"default_left":[0,0,0,0,0,0,0,0,0,0,0,0,0],"id":55,"left_children":[1,3,5,7,9,11,-1,-1,-1,-1,-1,-1,-1],"loss_changes":[4.35411E-1,6.9829965E-1,7.0646703E-1,7.9933095E-1,5.375726E-1,6.590271E-1,0E0,0E0,0E0,0E0,0E0,0E0,0E0],"parents":[2147483647,0,0,1,1,2,2,3,3,4,4,5,5],"right_children":[2,4,6,8,10,12,-1,-1,-1,-1,-1,-1,-1],"split_conditions":[1E0,1E0,1E0,8.229E3,4E0,1E0,-1.9528253E-1,6.9773844E-3,1.3054363E-1,-1.9828251E-1,2.2142231E-2,5.454265E-2,-5.4749485E-2],"split_indices":[9,24,29,1,2,40,0,0,0,0,0,0,0],"split_type":[0,0,0,0,0,0,0,0,0,0,0,0,0],"sum_hessian":[9.3280235E1,7.141195E1,2.1868286E1,6.855774E1,2.8542144E0,2.0541698E1,1.3265884E0,6.446119E1,4.0965486E0,1.5009575E0,1.353257E0,6.4731035E0,1.4068595E1],"tree_param":{"num_deleted":"0","num_feature":"48","num_nodes":"13","size_leaf_vector":"1"}},{"base_weights":[-7.6933294E-3,1.2263079E-2,-2.5417766E-1,3.4895245E-2,-2.3857419E-1,3.2086903E-1,-5.6075996E-1,1.9945133E-2,-6.045382E-2,-2.0642832E-1,-3.2686193E-3,2.7960267E-2,1.166529E-1,-2.7725422E-1,-1.9331843E-2],"categories":[],"categories_nodes":[],"categories_segments":[],"categories_sizes":[],"default_left":[0,0,0,0,0,0,0,0,0,0,0,0,0,0,0],"id":56,"left_children":[1,3,5,7,9,11,13,-1,-1,-1,-1,-1,-1,-1,-1],"loss_changes":[4.6325314E-1,5.050123E-1,1.4232712E0,6.1920553E-1,7.466233E-1,1.1555672E-2,8.358085E-1,0E0,0E0,0E0,0E0,0E0,0E0,0E0,0E0],"parents":[2147483647,0,0,1,1,2,2,3,3,4,4,5,5,6,6],"right_children":[2,4,6,8,10,12,14,-1,-1,-1,-1,-1,-1,-1,-1],"split_conditions":[1E0,1E0,2.108E3,1E0,3.38E3,3.5E1,4.042E3,1.9945133E-2,-6.045382E-2,-2.0642832E-1,-3.2686193E-3,2.7960267E-2,1.166529E-1,-2.7725422E-1,-1.9331843E-2],"split_indices":[39,14,1,42,1,4,1,0,0,0,0,0,0,0,0],"split_type":[0,0,0,0,0,0,0,0,0,0,0,0,0,0,0],"sum_hessian":[9.2543724E1,8.649127E1,6.0524497E0,8.012295E1,6.368327E0,2.088506E0,3.9639437E0,7.131297E1,8.809971E0,1.4611915E0,4.9071355E0,1.0253575E0,1.0631485E0,1.7906858E0,2.173258E0],"tree_param":{"num_deleted":"0","num_feature":"48","num_nodes":"15","size_leaf_vector":"1"}},{"base_weights":[-1.0288776E-2,4.6583186E-4,-1.1030649E-1,-3.8366448E-2,1.3962379E-1,-1.9670155E-2,1.1284696E-1,-6.7833275E-2,7.285872E-2],"categories":[],"categories_nodes":[],"categories_segments":[],"categories_sizes":[],"default_left":[0,0,0,0,0,0,0,0,0],"id":57,"left_children":[1,3,-1,5,7,-1,-1,-1,-1],"loss_changes":[3.589048E-1,5.003621E-1,0E0,8.4102225E-1,8.1764734E-1,0E0,0E0,0E0,0E0],"parents":[2147483647,0,0,1,1,3,3,4,4],"right_children":[2,4,-1,6,8,-1,-1,-1,-1],"split_conditions":[1E0,1E0,-1.1030649E-1,1E0,1E0,-1.9670155E-2,1.1284696E-1,-6.7833275E-2,7.285872E-2],"split_indices":[47,27,0,34,40,0,0,0,0],"split_type":[0,0,0,0,0,0,0,0,0],"sum_hessian":[9.2330475E1,9.060281E1,1.727658E0,7.14022E1,1.9200617E1,6.7795334E1,3.606862E0,3.9647727E0,1.5235844E1],"tree_param":{"num_deleted":"0","num_feature":"48","num_nodes":"9","size_leaf_vector":"1"}},{"base_weights":[-7.460494E-3,-2.6556286E-1,4.6662237E-3,7.112713E-2,-1.9387235E-1,3.758601E-1,-1.2050108E-2,3.3604868E-2,-1.5431227E-3,1.9391662E-1,-5.2187536E-2,-1.3297313E-1,1.3576333E-3],"categories":[],"categories_nodes":[],"categories_segments":[],"categories_sizes":[],"default_left":[0,0,0,0,0,0,0,0,0,0,0,0,0],"id":58,"left_children":[1,3,5,7,-1,9,11,-1,-1,-1,-1,-1,-1],"loss_changes":[2.9234052E-1,5.831226E-1,5.6182873E-1,1.03213955E-2,0E0,6.9275624E-1,6.231978E-1,0E0,0E0,0E0,0E0,0E0,0E0],"parents":[2147483647,0,0,1,1,2,2,3,3,5,5,6,6],"right_children":[2,4,6,8,-1,10,12,-1,-1,-1,-1,-1,-1],"split_conditions":[6.84E2,3.1E1,7.81E2,1E1,-1.9387235E-1,1E0,8.74E2,3.3604868E-2,-1.5431227E-3,1.9391662E-1,-5.2187536E-2,-1.3297313E-1,1.3576333E-3],"split_indices":[1,4,1,0,0,28,1,0,0,0,0,0,0],"split_type":[0,0,0,0,0,0,0,0,0,0,0,0,0],"sum_hessian":[9.200556E1,3.1909568E0,8.8814606E1,2.124821E0,1.0661359E0,2.9014723E0,8.591313E1,1.078155E0,1.0466659E0,1.8269255E0,1.0745468E0,2.2274632E0,8.368567E1],"tree_param":{"num_deleted":"0","num_feature":"48","num_nodes":"13","size_leaf_vector":"1"}},{"base_weights":[-7.026903E-3,4.53393E-3,-2.6080847E-1,5.0692808E-2,-8.458648E-2,-1.8453069E-1,5.4906465E-2,-3.9354388E-2,4.7105126E-2,3.33162E-2,-1.06296286E-1],"categories":[],"categories_nodes":[],"categories_segments":[],"categories_sizes":[],"default_left":[0,0,0,0,0,0,0,0,0,0,0],"id":59,"left_children":[1,3,5,7,9,-1,-1,-1,-1,-1,-1],"loss_changes":[2.733343E-1,3.732935E-1,7.5077724E-1,1.175435E0,1.6742985E0,0E0,0E0,0E0,0E0,0E0,0E0],"parents":[2147483647,0,0,1,1,2,2,3,3,4,4],"right_children":[2,4,6,8,10,-1,-1,-1,-1,-1,-1],"split_conditions":[1E0,1E0,2E0,1.8E1,4E0,-1.8453069E-1,5.4906465E-2,-3.9354388E-2,4.7105126E-2,3.33162E-2,-1.06296286E-1],"split_indices":[25,7,5,0,2,0,0,0,0,0,0],"split_type":[0,0,0,0,0,0,0,0,0,0,0],"sum_hessian":[9.176028E1,8.8701675E1,3.058605E0,5.8719685E1,2.9981989E1,1.486271E0,1.5723339E0,2.1577051E1,3.714263E1,1.7718737E1,1.2263252E1],"tree_param":{"num_deleted":"0","num_feature":"48","num_nodes":"11","size_leaf_vector":"1"}},{"base_weights":[-7.3695485E-3,4.820331E-2,-8.4827065E-2,1.5305434E-1,-1.9048764E-1,-6.583992E-1,4.5613768E-3,1.2264351E-2,2.232864E-1,1.6687479E-2,-1.5397407E-1,-2.6717687E-1,-5.363648E-2,1.489884E-1,-1.8840924E-2],"categories":[],"categories_nodes":[],"categories_segments":[],"categories_sizes":[],"default_left":[0,0,0,0,0,0,0,0,0,0,0,0,0,0,0],"id":60,"left_children":[1,3,5,7,9,11,13,-1,-1,-1,-1,-1,-1,-1,-1],"loss_changes":[4.0206608E-1,1.3923788E0,2.0017998E0,2.5162833E0,1.384517E0,4.26903E-1,1.1821415E0,0E0,0E0,0E0,0E0,0E0,0E0,0E0,0E0],"parents":[2147483647,0,0,1,1,2,2,3,3,4,4,5,5,6,6],"right_children":[2,4,6,8,10,12,14,-1,-1,-1,-1,-1,-1,-1,-1],"split_conditions":[2.779E3,1E0,3.077E3,2E0,3.6E1,1E0,3.394E3,1.2264351E-2,2.232864E-1,1.6687479E-2,-1.5397407E-1,-2.6717687E-1,-5.363648E-2,1.489884E-1,-1.8840924E-2],"split_indices":[1,46,1,6,4,28,1,0,0,0,0,0,0,0,0],"split_type":[0,0,0,0,0,0,0,0,0,0,0,0,0,0,0],"sum_hessian":[9.14553E1,5.3470154E1,3.7985146E1,3.7400024E1,1.607013E1,4.2633333E0,3.3721813E1,3.2334442E1,5.0655813E0,9.587252E0,6.4828773E0,2.2952518E0,1.9680816E0,3.2933247E0,3.042849E1],"tree_param":{"num_deleted":"0","num_feature":"48","num_nodes":"15","size_leaf_vector":"1"}},{"base_weights":[-6.9350363E-3,2.8805371E-2,-1.2064051E-1,5.44844E-2,-3.1157827E-1,-6.622279E-2,-1.799949E-1,-1.8240167E-2,4.665166E-2,1.1521938E-1,-1.8361646E-1,1.1833824E-2,-1.0085536E-1],"categories":[],"categories_nodes":[],"categories_segments":[],"categories_sizes":[],"default_left":[0,0,0,0,0,0,0,0,0,0,0,0,0],"id":61,"left_children":[1,3,5,7,9,11,-1,-1,-1,-1,-1,-1,-1],"loss_changes":[3.7769797E-1,6.3643074E-1,5.3974396E-1,7.8683573E-1,1.3053391E0,6.1444E-1,0E0,0E0,0E0,0E0,0E0,0E0,0E0],"parents":[2147483647,0,0,1,1,2,2,3,3,4,4,5,5],"right_children":[2,4,6,8,10,12,-1,-1,-1,-1,-1,-1,-1],"split_conditions":[1E0,1E0,1E0,3.1E1,1E0,1E0,-1.799949E-1,-1.8240167E-2,4.665166E-2,1.1521938E-1,-1.8361646E-1,1.1833824E-2,-1.0085536E-1],"split_indices":[9,35,29,4,40,13,0,0,0,0,0,0,0],"split_type":[0,0,0,0,0,0,0,0,0,0,0,0,0],"sum_hessian":[9.108512E1,6.986996E1,2.1215166E1,6.574964E1,4.120315E0,2.0074364E1,1.140804E0,3.0892906E1,3.485673E1,1.1589675E0,2.9613476E0,1.5040909E1,5.0334544E0],"tree_param":{"num_deleted":"0","num_feature":"48","num_nodes":"13","size_leaf_vector":"1"}},{"base_weights":[-8.827661E-3,8.587501E-3,-2.0318818E-1,3.239273E-2,-2.2616552E-1,-5.6270283E-1,8.5107215E-2,4.19051E-4,1.9405082E-1,-2.2808747E-1,1.8693056E-2,-2.266081E-1,-2.9587418E-2,-1.1351277E-1,1.1464801E-1],"categories":[],"categories_nodes":[],"categories_segments":[],"categories_sizes":[],"default_left":[0,0,0,0,0,0,0,0,0,0,0,0,0,0,0],"id":62,"left_children":[1,3,5,7,9,11,13,-1,-1,-1,-1,-1,-1,-1,-1],"loss_changes":[3.1169638E-1,4.8233715E-1,8.3257675E-1,1.4855579E0,1.2725103E0,2.3848653E-1,8.4265804E-1,0E0,0E0,0E0,0E0,0E0,0E0,0E0,0E0],"parents":[2147483647,0,0,1,1,2,2,3,3,4,4,5,5,6,6],"right_children":[2,4,6,8,10,12,14,-1,-1,-1,-1,-1,-1,-1,-1],"split_conditions":[1E0,7.228E3,4E0,6.416E3,7.763E3,7.297E3,3E0,4.19051E-4,1.9405082E-1,-2.2808747E-1,1.8693056E-2,-2.266081E-1,-2.9587418E-2,-1.1351277E-1,1.1464801E-1],"split_indices":[14,1,3,1,1,1,2,0,0,0,0,0,0,0,0],"split_type":[0,0,0,0,0,0,0,0,0,0,0,0,0,0,0],"sum_hessian":[9.0571045E1,8.4000244E1,6.570804E0,7.7049065E1,6.951179E0,2.5006175E0,4.0701866E0,7.4303085E1,2.745982E0,1.8641226E0,5.087056E0,1.3235153E0,1.1771021E0,1.4828192E0,2.5873675E0],"tree_param":{"num_deleted":"0","num_feature":"48","num_nodes":"15","size_leaf_vector":"1"}},{"base_weights":[-9.617943E-3,2.5907144E-5,-9.993223E-2,1.538404E-2,-1.9575343E-1,2.1709876E-2,-2.6602374E-2,-1.9760661E-1,5.046906E-2],"categories":[],"categories_nodes":[],"categories_segments":[],"categories_sizes":[],"default_left":[0,0,0,0,0,0,0,0,0],"id":63,"left_children":[1,3,-1,5,7,-1,-1,-1,-1],"loss_changes":[2.842405E-1,2.7203512E-1,0E0,5.038454E-1,1.2197194E0,0E0,0E0,0E0,0E0],"parents":[2147483647,0,0,1,1,3,3,4,4],"right_children":[2,4,-1,6,8,-1,-1,-1,-1],"split_conditions":[1E0,1E0,-9.993223E-2,1E0,2.9E1,2.1709876E-2,-2.6602374E-2,-1.9760661E-1,5.046906E-2],"split_indices":[47,39,0,7,4,0,0,0,0],"split_type":[0,0,0,0,0,0,0,0,0],"sum_hessian":[9.0109184E1,8.8471596E1,1.6375903E0,8.289057E1,5.581024E0,5.3757614E1,2.9132957E1,2.1002014E0,3.4808226E0],"tree_param":{"num_deleted":"0","num_feature":"48","num_nodes":"9","size_leaf_vector":"1"}},{"base_weights":[-9.710734E-3,8.05394E-3,-2.0094728E-1,8.613579E-2,-6.513949E-2,1.693315E-1,-5.983588E-1,2.635284E-3,1.7207092E-1,3.3009422E-3,-1.3660963E-1,-1.233916E-1,1.441284E-1,-1.3134313E-2,-3.0210373E-1],"categories":[],"categories_nodes":[],"categories_segments":[],"categories_sizes":[],"default_left":[0,0,0,0,0,0,0,0,0,0,0,0,0,0,0],"id":64,"left_children":[1,3,5,7,9,11,13,-1,-1,-1,-1,-1,-1,-1,-1],"loss_changes":[3.109659E-1,4.8727643E-1,1.2459195E0,1.5486863E0,1.3144854E0,1.0657343E0,8.561456E-1,0E0,0E0,0E0,0E0,0E0,0E0,0E0,0E0],"parents":[2147483647,0,0,1,1,2,2,3,3,4,4,5,5,6,6],"right_children":[2,4,6,8,10,12,14,-1,-1,-1,-1,-1,-1,-1,-1],"split_conditions":[1E0,1E0,1E0,1E0,1E0,2.8E1,1.8E1,2.635284E-3,1.7207092E-1,3.3009422E-3,-1.3660963E-1,-1.233916E-1,1.441284E-1,-1.3134313E-2,-3.0210373E-1],"split_indices":[8,32,31,23,23,4,0,0,0,0,0,0,0,0,0],"split_type":[0,0,0,0,0,0,0,0,0,0,0,0,0,0,0],"sum_hessian":[9.005807E1,8.3279785E1,6.778284E0,4.0208755E1,4.307103E1,3.8060248E0,2.9722593E0,3.5580467E1,4.628288E0,3.685209E1,6.2189417E0,1.2154218E0,2.590603E0,1.730694E0,1.2415652E0],"tree_param":{"num_deleted":"0","num_feature":"48","num_nodes":"15","size_leaf_vector":"1"}},{"base_weights":[-1.000182E-2,2.1043874E-2,-1.0897137E-1,-1.2306665E-1,3.673351E-2,1.0812715E-1,-2.2831792E-1,9.709564E-2,3.6830077E-4,-7.790323E-2,1.15132056E-1,-1.7174578E-1,4.042575E-2],"categories":[],"categories_nodes":[],"categories_segments":[],"categories_sizes":[],"default_left":[0,0,0,0,0,0,0,0,0,0,0,0,0],"id":65,"left_children":[1,3,5,-1,7,9,11,-1,-1,-1,-1,-1,-1],"loss_changes":[2.8091052E-1,4.8779795E-1,5.8990186E-1,0E0,6.956945E-1,9.529924E-1,1.8762414E0,0E0,0E0,0E0,0E0,0E0,0E0],"parents":[2147483647,0,0,1,1,2,2,4,4,5,5,6,6],"right_children":[2,4,6,-1,8,10,12,-1,-1,-1,-1,-1,-1],"split_conditions":[1E0,6.09E2,1E0,-1.2306665E-1,9.75E2,4E0,2E0,9.709564E-2,3.6830077E-4,-7.790323E-2,1.15132056E-1,-1.7174578E-1,4.042575E-2],"split_indices":[9,1,44,0,1,2,5,0,0,0,0,0,0],"split_type":[0,0,0,0,0,0,0,0,0,0,0,0,0],"sum_hessian":[8.967868E1,6.886411E1,2.0814568E1,1.5346498E0,6.732946E1,7.4168606E0,1.3397707E1,6.5207305E0,6.0808735E1,3.2021081E0,4.2147527E0,6.581791E0,6.815916E0],"tree_param":{"num_deleted":"0","num_feature":"48","num_nodes":"13","size_leaf_vector":"1"}},{"base_weights":[-9.215589E-3,7.3108063E-3,-1.8830563E-1,8.6013794E-2,-4.432209E-2,4.0607113E-2,-2.233016E-1,-9.690709E-2,6.1727103E-2,2.1609708E-3,-1.2267044E-1,1.2345968E-1,-1.3661698E-1],"categories":[],"categories_nodes":[],"categories_segments":[],"categories_sizes":[],"default_left":[0,0,0,0,0,0,0,0,0,0,0,0,0],"id":66,"left_children":[1,3,5,7,9,11,-1,-1,-1,-1,-1,-1,-1],"loss_changes":[2.6793388E-1,3.427857E-1,1.003448E0,1.7016635E0,9.615534E-1,1.3583461E0,0E0,0E0,0E0,0E0,0E0,0E0,0E0],"parents":[2147483647,0,0,1,1,2,2,3,3,4,4,5,5],"right_children":[2,4,6,8,10,12,-1,-1,-1,-1,-1,-1,-1],"split_conditions":[1E0,3E1,1E0,1.264E3,1E0,1E0,-2.233016E-1,-9.690709E-2,6.1727103E-2,2.1609708E-3,-1.2267044E-1,1.2345968E-1,-1.3661698E-1],"split_indices":[8,4,36,1,29,37,0,0,0,0,0,0,0],"split_type":[0,0,0,0,0,0,0,0,0,0,0,0,0],"sum_hessian":[8.9061844E1,8.241571E1,6.646128E0,3.238541E1,5.0030304E1,5.364565E0,1.2815632E0,6.9492955E0,2.5436115E1,4.4694023E1,5.336281E0,3.1666892E0,2.197876E0],"tree_param":{"num_deleted":"0","num_feature":"48","num_nodes":"13","size_leaf_vector":"1"}},{"base_weights":[-1.1436389E-2,4.8019467E-3,-1.9628781E-1,2.3000218E-2,-2.600066E-1,-3.826121E-1,7.9785995E-2,1.1144503E-2,-1.1475671E-1,1.1849944E-1,-1.6226207E-1,-1.8416637E-1,1.1281469E-2],"categories":[],"categories_nodes":[],"categories_segments":[],"categories_sizes":[],"default_left":[0,0,0,0,0,0,0,0,0,0,0,0,0],"id":67,"left_children":[1,3,5,7,9,11,-1,-1,-1,-1,-1,-1,-1],"loss_changes":[2.698904E-1,4.0760022E-1,7.269646E-1,4.668876E-1,1.2144923E0,5.657488E-1,0E0,0E0,0E0,0E0,0E0,0E0,0E0],"parents":[2147483647,0,0,1,1,2,2,3,3,4,4,5,5],"right_children":[2,4,6,8,10,12,-1,-1,-1,-1,-1,-1,-1],"split_conditions":[1E0,1E0,1E0,6.2E1,1.126E3,1E0,7.9785995E-2,1.1144503E-2,-1.1475671E-1,1.1849944E-1,-1.6226207E-1,-1.8416637E-1,1.1281469E-2],"split_indices":[14,24,31,4,1,42,0,0,0,0,0,0,0],"split_type":[0,0,0,0,0,0,0,0,0,0,0,0,0],"sum_hessian":[8.8599106E1,8.233995E1,6.2591577E0,7.789965E1,4.4403043E0,4.583761E0,1.6753963E0,7.615123E1,1.7484179E0,1.2106397E0,3.2296646E0,2.659283E0,1.9244785E0],"tree_param":{"num_deleted":"0","num_feature":"48","num_nodes":"13","size_leaf_vector":"1"}},{"base_weights":[-1.1251007E-2,6.516682E-4,-2.7009663E-1,2.5116008E-2,-1.886587E-1,5.3609353E-2,-1.787383E-1,1.588987E-2,-7.349207E-2,-1.3723892E-1,9.529749E-2],"categories":[],"categories_nodes":[],"categories_segments":[],"categories_sizes":[],"default_left":[0,0,0,0,0,0,0,0,0,0,0],"id":68,"left_children":[1,3,5,7,9,-1,-1,-1,-1,-1,-1],"loss_changes":[2.7509537E-1,4.044548E-1,6.802231E-1,5.9452206E-1,1.5055572E0,0E0,0E0,0E0,0E0,0E0,0E0],"parents":[2147483647,0,0,1,1,2,2,3,3,4,4],"right_children":[2,4,6,8,10,-1,-1,-1,-1,-1,-1],"split_conditions":[1E0,1E0,1.8E1,1E0,1E0,5.3609353E-2,-1.787383E-1,1.588987E-2,-7.349207E-2,-1.3723892E-1,9.529749E-2],"split_indices":[25,12,0,22,22,0,0,0,0,0,0],"split_type":[0,0,0,0,0,0,0,0,0,0,0],"sum_hessian":[8.823185E1,8.530662E1,2.9252303E0,7.631222E1,8.994403E0,1.4199505E0,1.5052798E0,6.990761E1,6.4046125E0,5.9382615E0,3.0561416E0],"tree_param":{"num_deleted":"0","num_feature":"48","num_nodes":"11","size_leaf_vector":"1"}},{"base_weights":[-1.0727605E-2,4.622486E-3,-1.7909789E-1,-2.7611101E-2,1.3369644E-1,-2.1702008E-1,3.274474E-2,7.676735E-3,-1.01106234E-1,-7.0230454E-2,8.938013E-2,9.781898E-2,-1.2648885E-1],"categories":[],"categories_nodes":[],"categories_segments":[],"categories_sizes":[],"default_left":[0,0,0,0,0,0,0,0,0,0,0,0,0],"id":69,"left_children":[1,3,5,7,9,-1,11,-1,-1,-1,-1,-1,-1],"loss_changes":[2.3114212E-1,3.4752882E-1,8.8511103E-1,1.1107887E0,1.0776508E0,0E0,9.8170584E-1,0E0,0E0,0E0,0E0,0E0,0E0],"parents":[2147483647,0,0,1,1,2,2,3,3,4,4,6,6],"right_children":[2,4,6,8,10,-1,12,-1,-1,-1,-1,-1,-1],"split_conditions":[1E0,4.4E1,2.5E1,3.8E1,1.543E3,-2.1702008E-1,4E1,7.676735E-3,-1.01106234E-1,-7.0230454E-2,8.938013E-2,9.781898E-2,-1.2648885E-1],"split_indices":[8,4,4,4,1,0,4,0,0,0,0,0,0],"split_type":[0,0,0,0,0,0,0,0,0,0,0,0,0],"sum_hessian":[8.811368E1,8.1642944E1,6.470731E0,6.595749E1,1.5685454E1,1.1363152E0,5.334416E0,5.706327E1,8.89422E0,4.7107267E0,1.0974728E1,3.4133434E0,1.9210724E0],"tree_param":{"num_deleted":"0","num_feature":"48","num_nodes":"13","size_leaf_vector":"1"}},{"base_weights":[-1.1574595E-2,8.44206E-2,-4.363272E-2,-2.6908807E-2,7.569217E-1,-1.821696E-1,-1.877173E-2,-1.3068525E-1,6.7582004E-2,2.938887E-1,6.2338118E-2,7.965905E-3,-8.991144E-2],"categories":[],"categories_nodes":[],"categories_segments":[],"categories_sizes":[],"default_left":[0,0,0,0,0,0,0,0,0,0,0,0,0],"id":70,"left_children":[1,3,5,7,9,-1,11,-1,-1,-1,-1,-1,-1],"loss_changes":[2.770676E-1,1.7109613E0,9.30949E-1,2.1944668E0,1.9285941E-1,0E0,8.412865E-1,0E0,0E0,0E0,0E0,0E0,0E0],"parents":[2147483647,0,0,1,1,2,2,3,3,4,4,6,6],"right_children":[2,4,6,8,10,-1,12,-1,-1,-1,-1,-1,-1],"split_conditions":[1.374E3,1.309E3,1.422E3,2.8E1,2.8E1,-1.821696E-1,1E0,-1.3068525E-1,6.7582004E-2,2.938887E-1,6.2338118E-2,7.965905E-3,-8.991144E-2],"split_indices":[1,1,1,4,4,0,26,0,0,0,0,0,0],"split_type":[0,0,0,0,0,0,0,0,0,0,0,0,0],"sum_hessian":[8.783531E1,2.1580643E1,6.625467E1,1.9339127E1,2.241515E0,1.8094435E0,6.444523E1,7.1018496E0,1.2237277E1,1.03698E0,1.204535E0,5.6271988E1,8.173241E0],"tree_param":{"num_deleted":"0","num_feature":"48","num_nodes":"13","size_leaf_vector":"1"}},{"base_weights":[-8.264737E-3,1.9426161E-2,-1.0892748E-1,4.4984203E-2,-3.7903655E-1,1.0448249E-1,-3.818345E-1,3.1565785E-2,-2.0537172E-2,7.317616E-2,-2.004555E-1,-4.1750096E-2,1.4487381E-1,-1.757441E-1,1.1625362E-1],"categories":[],"categories_nodes":[],"categories_segments":[],"categories_sizes":[],"default_left":[0,0,0,0,0,0,0,0,0,0,0,0,0,0,0],"id":71,"left_children":[1,3,5,7,9,11,13,-1,-1,-1,-1,-1,-1,-1,-1],"loss_changes":[2.4827613E-1,7.3101556E-1,1.1583194E0,4.6348843E-1,9.432628E-1,1.133228E0,1.5831776E0,0E0,0E0,0E0,0E0,0E0,0E0,0E0,0E0],"parents":[2147483647,0,0,1,1,2,2,3,3,4,4,5,5,6,6],"right_children":[2,4,6,8,10,12,14,-1,-1,-1,-1,-1,-1,-1,-1],"split_conditions":[1E0,1E0,3.6E1,1E0,2.8E1,1E0,1E0,3.1565785E-2,-2.0537172E-2,7.317616E-2,-2.004555E-1,-4.1750096E-2,1.4487381E-1,-1.757441E-1,1.1625362E-1],"split_indices":[13,35,4,7,4,7,16,0,0,0,0,0,0,0,0],"split_type":[0,0,0,0,0,0,0,0,0,0,0,0,0,0,0],"sum_hessian":[8.7310394E1,6.910704E1,1.8203356E1,6.577522E1,3.331823E0,1.0561523E1,7.641832E0,4.3010178E1,2.2765043E1,1.1058145E0,2.2260087E0,6.809518E0,3.7520056E0,6.228902E0,1.4129299E0],"tree_param":{"num_deleted":"0","num_feature":"48","num_nodes":"15","size_leaf_vector":"1"}},{"base_weights":[-7.496282E-3,8.321098E-2,-3.763418E-2,2.745412E-1,-2.677221E-1,4.601222E-2,-1.76773E-1,-2.9553734E-2,2.4426945E-1,5.646417E-2,-1.4478846E-1,-8.223003E-2,3.0837113E-2,-1.6854607E-1,3.0280067E-2],"categories":[],"categories_nodes":[],"categories_segments":[],"categories_sizes":[],"default_left":[0,0,0,0,0,0,0,0,0,0,0,0,0,0,0],"id":72,"left_children":[1,3,5,7,9,11,13,-1,-1,-1,-1,-1,-1,-1,-1],"loss_changes":[2.4292596E-1,1.5632548E0,7.8243625E-1,3.070537E0,9.075108E-1,7.9779434E-1,2.7498052E0,0E0,0E0,0E0,0E0,0E0,0E0,0E0,0E0],"parents":[2147483647,0,0,1,1,2,2,3,3,4,4,5,5,6,6],"right_children":[2,4,6,8,10,12,14,-1,-1,-1,-1,-1,-1,-1,-1],"split_conditions":[1.374E3,3.8E1,1E0,2.9E1,1E0,1.766E3,2.2E1,-2.9553734E-2,2.4426945E-1,5.646417E-2,-1.4478846E-1,-8.223003E-2,3.0837113E-2,-1.6854607E-1,3.0280067E-2],"split_indices":[1,4,37,4,41,1,0,0,0,0,0,0,0,0,0],"split_type":[0,0,0,0,0,0,0,0,0,0,0,0,0,0,0],"sum_hessian":[8.671706E1,2.1187416E1,6.552964E1,1.3852601E1,7.3348145E0,4.134405E1,2.418559E1,8.674166E0,5.1784353E0,2.3895166E0,4.945298E0,5.6518197E0,3.569223E1,9.70554E0,1.4480051E1],"tree_param":{"num_deleted":"0","num_feature":"48","num_nodes":"15","size_leaf_vector":"1"}},{"base_weights":[-6.7135235E-3,4.963636E-2,-5.5719785E-2,-2.3108986E-3,5.750424E-1,-6.3662225E-1,-4.669402E-3,2.1156067E-2,-1.0230898E-1,2.7333337E-1,-2.4370683E-2,-6.3620344E-2,-2.2875638E-1,2.0795937E-1,-1.6517477E-2],"categories":[],"categories_nodes":[],"categories_segments":[],"categories_sizes":[],"default_left":[0,0,0,0,0,0,0,0,0,0,0,0,0,0,0],"id":73,"left_children":[1,3,5,7,9,11,13,-1,-1,-1,-1,-1,-1,-1,-1],"loss_changes":[2.4255556E-1,1.1181544E0,1.3882766E0,9.672437E-1,8.8691354E-1,4.046786E-2,1.5900426E0,0E0,0E0,0E0,0E0,0E0,0E0,0E0,0E0],"parents":[2147483647,0,0,1,1,2,2,3,3,4,4,5,5,6,6],"right_children":[2,4,6,8,10,12,14,-1,-1,-1,-1,-1,-1,-1,-1],"split_conditions":[2.284E3,2.142E3,2.359E3,1E0,1E0,2.2E1,2.476E3,2.1156067E-2,-1.0230898E-1,2.7333337E-1,-2.4370683E-2,-6.3620344E-2,-2.2875638E-1,2.0795937E-1,-1.6517477E-2],"split_indices":[1,1,1,16,11,0,1,0,0,0,0,0,0,0,0],"split_type":[0,0,0,0,0,0,0,0,0,0,0,0,0,0,0],"sum_hessian":[8.5833275E1,3.9919243E1,4.591403E1,3.723354E1,2.6857042E0,2.782418E0,4.313161E1,3.1296082E1,5.937458E0,1.5193634E0,1.1663407E0,1.2503703E0,1.5320477E0,2.0454805E0,4.1086132E1],"tree_param":{"num_deleted":"0","num_feature":"48","num_nodes":"15","size_leaf_vector":"1"}},{"base_weights":[-4.2120595E-3,2.5038734E-2,-9.577747E-2,-1.2961014E-3,3.1199828E-1,1.234279E-1,-2.0011236E-1,1.4766515E-2,-9.180475E-2,-4.1980997E-2,1.5140003E-1,1.1521113E-1,-9.972391E-2,2.103366E-2,-1.3280185E-1],"categories":[],"categories_nodes":[],"categories_segments":[],"categories_sizes":[],"default_left":[0,0,0,0,0,0,0,0,0,0,0,0,0,0,0],"id":74,"left_children":[1,3,5,7,9,11,13,-1,-1,-1,-1,-1,-1,-1,-1],"loss_changes":[2.3455068E-1,5.028296E-1,5.09391E-1,9.67811E-1,5.575958E-1,1.0130104E0,9.97178E-1,0E0,0E0,0E0,0E0,0E0,0E0,0E0,0E0],"parents":[2147483647,0,0,1,1,2,2,3,3,4,4,5,5,6,6],"right_children":[2,4,6,8,10,12,14,-1,-1,-1,-1,-1,-1,-1,-1],"split_conditions":[1E0,4.8E1,1E0,5.302E3,1E0,1E0,3.2E1,1.4766515E-2,-9.180475E-2,-4.1980997E-2,1.5140003E-1,1.1521113E-1,-9.972391E-2,2.103366E-2,-1.3280185E-1],"split_indices":[9,0,40,1,44,17,4,0,0,0,0,0,0,0,0],"split_type":[0,0,0,0,0,0,0,0,0,0,0,0,0,0,0],"sum_hessian":[8.567709E1,6.548447E1,2.0192625E1,6.0891792E1,4.592675E0,6.452682E0,1.37399435E1,5.295169E1,7.940103E0,1.4545307E0,3.1381443E0,4.205736E0,2.2469454E0,6.835643E0,6.9043007E0],"tree_param":{"num_deleted":"0","num_feature":"48","num_nodes":"15","size_leaf_vector":"1"}},{"base_weights":[-4.232819E-3,1.048664E-2,-1.9609065E-1,-6.5118745E-3,2.1207988E-1,9.1519035E-2,-2.1466385E-1,5.0254878E-2,-1.2232128E-2,-6.92416E-2,1.7151123E-1,1.1237412E-1,-1.07928894E-1],"categories":[],"categories_nodes":[],"categories_segments":[],"categories_sizes":[],"default_left":[0,0,0,0,0,0,0,0,0,0,0,0,0],"id":75,"left_children":[1,3,5,7,9,11,-1,-1,-1,-1,-1,-1,-1],"loss_changes":[2.4473865E-1,2.7812964E-1,9.8787385E-1,4.567055E-1,1.1369636E0,7.5562495E-1,0E0,0E0,0E0,0E0,0E0,0E0,0E0],"parents":[2147483647,0,0,1,1,2,2,3,3,4,4,5,5],"right_children":[2,4,6,8,10,12,-1,-1,-1,-1,-1,-1,-1],"split_conditions":[1E0,1E0,1E0,1E0,1E0,1E0,-2.1466385E-1,5.0254878E-2,-1.2232128E-2,-6.92416E-2,1.7151123E-1,1.1237412E-1,-1.07928894E-1],"split_indices":[39,10,16,40,44,37,0,0,0,0,0,0,0],"split_type":[0,0,0,0,0,0,0,0,0,0,0,0,0],"sum_hessian":[8.493433E1,7.976041E1,5.173929E0,7.4450386E1,5.3100224E0,3.8603601E0,1.3135691E0,1.1606683E1,6.28437E1,2.5400715E0,2.7699506E0,2.4767878E0,1.3835723E0],"tree_param":{"num_deleted":"0","num_feature":"48","num_nodes":"13","size_leaf_vector":"1"}},{"base_weights":[-3.8988634E-3,5.2786395E-3,-9.444302E-2,1.917546E-2,-1.812731E-1,1.8823998E-2,-1.8393409E-2,-1.6777079E-1,3.908819E-2],"categories":[],"categories_nodes":[],"categories_segments":[],"categories_sizes":[],"default_left":[0,0,0,0,0,0,0,0,0],"id":76,"left_children":[1,3,-1,5,7,-1,-1,-1,-1],"loss_changes":[2.456051E-1,2.2130826E-1,0E0,2.8125682E-1,7.7012485E-1,0E0,0E0,0E0,0E0],"parents":[2147483647,0,0,1,1,3,3,4,4],"right_children":[2,4,-1,6,8,-1,-1,-1,-1],"split_conditions":[1E0,1E0,-9.444302E-2,1E0,2.9E1,1.8823998E-2,-1.8393409E-2,-1.6777079E-1,3.908819E-2],"split_indices":[47,39,0,7,4,0,0,0,0],"split_type":[0,0,0,0,0,0,0,0,0],"sum_hessian":[8.449251E1,8.3024796E1,1.467711E0,7.810381E1,4.9209857E0,5.081548E1,2.7288334E1,1.8643833E0,3.056602E0],"tree_param":{"num_deleted":"0","num_feature":"48","num_nodes":"9","size_leaf_vector":"1"}},{"base_weights":[-5.499191E-3,5.538543E-3,-2.5002173E-1,3.3187926E-2,-1.6992691E-1,4.2740967E-2,-1.6091166E-1,1.7203048E-3,1.3020988E-1,-1.5373325E-1,6.3170823E-3],"categories":[],"categories_nodes":[],"categories_segments":[],"categories_sizes":[],"default_left":[0,0,0,0,0,0,0,0,0,0,0],"id":77,"left_children":[1,3,5,7,9,-1,-1,-1,-1,-1,-1],"loss_changes":[2.3199645E-1,4.0701544E-1,4.936131E-1,7.932192E-1,7.581899E-1,0E0,0E0,0E0,0E0,0E0,0E0],"parents":[2147483647,0,0,1,1,2,2,3,3,4,4],"right_children":[2,4,6,8,10,-1,-1,-1,-1,-1,-1],"split_conditions":[1E0,1E0,1.8E1,1E0,3.7E1,4.2740967E-2,-1.6091166E-1,1.7203048E-3,1.3020988E-1,-1.5373325E-1,6.3170823E-3],"split_indices":[25,42,0,38,4,0,0,0,0,0,0],"split_type":[0,0,0,0,0,0,0,0,0,0,0],"sum_hessian":[8.4444176E1,8.173214E1,2.712035E0,7.130669E1,1.042546E1,1.3559457E0,1.3560891E0,6.768527E1,3.6214087E0,3.12958E0,7.2958803E0],"tree_param":{"num_deleted":"0","num_feature":"48","num_nodes":"11","size_leaf_vector":"1"}},{"base_weights":[-5.572387E-3,1.0023329E-2,-1.7654088E-1,4.1766148E-2,-1.0702734E-1,-4.0309313E-1,1.6311921E-1,1.9598866E-2,-9.54699E-2,-2.2391789E-1,-4.826441E-3,4.890952E-2,-1.909865E-1,-5.242989E-2,1.316092E-1],"categories":[],"categories_nodes":[],"categories_segments":[],"categories_sizes":[],"default_left":[0,0,0,0,0,0,0,0,0,0,0,0,0,0,0],"id":78,"left_children":[1,3,5,7,9,11,13,-1,-1,-1,-1,-1,-1,-1,-1],"loss_changes":[2.2887401E-1,2.97995E-1,6.1777747E-1,5.540669E-1,9.842256E-1,7.108128E-1,4.1022784E-1,0E0,0E0,0E0,0E0,0E0,0E0,0E0,0E0],"parents":[2147483647,0,0,1,1,2,2,3,3,4,4,5,5,6,6],"right_children":[2,4,6,8,10,12,14,-1,-1,-1,-1,-1,-1,-1,-1],"split_conditions":[1E0,1E0,1E0,1E0,2E0,1.249E3,1E0,1.9598866E-2,-9.54699E-2,-2.2391789E-1,-4.826441E-3,4.890952E-2,-1.909865E-1,-5.242989E-2,1.316092E-1],"split_indices":[8,13,32,35,3,1,17,0,0,0,0,0,0,0,0],"split_type":[0,0,0,0,0,0,0,0,0,0,0,0,0,0,0],"sum_hessian":[8.417346E1,7.799972E1,6.1737475E0,6.186563E1,1.6134083E1,3.591484E0,2.5822635E0,5.8833282E1,3.0323484E0,1.1115453E0,1.5022537E1,1.1370062E0,2.4544778E0,1.3243281E0,1.2579353E0],"tree_param":{"num_deleted":"0","num_feature":"48","num_nodes":"15","size_leaf_vector":"1"}},{"base_weights":[-8.715867E-3,-3.844123E-2,6.958064E-2,1.3488889E-2,-2.3946306E-1,6.2424314E-1,-1.3870534E-2,-1.3505779E-1,1.58141E-2,3.265435E-2,-2.4697642E-1,5.4906186E-2,2.3147492E-1,1.9100158E-1,-3.2450978E-2],"categories":[],"categories_nodes":[],"categories_segments":[],"categories_sizes":[],"default_left":[0,0,0,0,0,0,0,0,0,0,0,0,0,0,0],"id":79,"left_children":[1,3,5,7,9,11,13,-1,-1,-1,-1,-1,-1,-1,-1],"loss_changes":[2.0017672E-1,6.520431E-1,1.1060133E0,9.392925E-1,2.6950092E0,6.1754584E-2,1.3930379E0,0E0,0E0,0E0,0E0,0E0,0E0,0E0,0E0],"parents":[2147483647,0,0,1,1,2,2,3,3,4,4,5,5,6,6],"right_children":[2,4,6,8,10,12,14,-1,-1,-1,-1,-1,-1,-1,-1],"split_conditions":[4.006E3,2.779E3,4.272E3,9E0,1E0,4.153E3,1.8E1,-1.3505779E-1,1.58141E-2,3.265435E-2,-2.4697642E-1,5.4906186E-2,2.3147492E-1,1.9100158E-1,-3.2450978E-2],"split_indices":[1,1,1,0,7,1,0,0,0,0,0,0,0,0,0],"split_type":[0,0,0,0,0,0,0,0,0,0,0,0,0,0,0],"sum_hessian":[8.3859764E1,6.1152264E1,2.2707499E1,4.9339302E1,1.181296E1,2.122154E0,2.0585344E1,3.0310915E0,4.6308212E1,7.9081974E0,3.9047623E0,1.0925579E0,1.0295962E0,1.8779999E0,1.8707346E1],"tree_param":{"num_deleted":"0","num_feature":"48","num_nodes":"15","size_leaf_vector":"1"}},{"base_weights":[-5.345603E-3,2.467755E-2,-9.930004E-2,1.0779257E-3,3.024333E-1,5.8862646E-3,-3.1636232E-1,-9.210534E-3,9.341593E-2,-1.0777349E-1,2.2541974E-1,-4.370696E-2,1.4076512E-1,3.233134E-2,-1.6812283E-1],"categories":[],"categories_nodes":[],"categories_segments":[],"categories_sizes":[],"default_left":[0,0,0,0,0,0,0,0,0,0,0,0,0,0,0],"id":80,"left_children":[1,3,5,7,9,11,13,-1,-1,-1,-1,-1,-1,-1,-1],"loss_changes":[2.4064702E-1,4.2439726E-1,4.733011E-1,6.0838944E-1,1.7762582E0,1.1140879E0,7.599185E-1,0E0,0E0,0E0,0E0,0E0,0E0,0E0,0E0],"parents":[2147483647,0,0,1,1,2,2,3,3,4,4,5,5,6,6],"right_children":[2,4,6,8,10,12,14,-1,-1,-1,-1,-1,-1,-1,-1],"split_conditions":[1E0,8.229E3,2.6E1,3.9E1,2E0,3.62E3,1E0,-9.210534E-3,9.341593E-2,-1.0777349E-1,2.2541974E-1,-4.370696E-2,1.4076512E-1,3.233134E-2,-1.6812283E-1],"split_indices":[9,1,0,0,2,1,32,0,0,0,0,0,0,0,0],"split_type":[0,0,0,0,0,0,0,0,0,0,0,0,0,0,0],"sum_hessian":[8.344265E1,6.3794464E1,1.9648184E1,5.972388E1,4.0705814E0,1.389007E1,5.7581134E0,5.4992935E1,4.730945E0,1.7262709E0,2.3443105E0,1.0982699E1,2.90737E0,2.3070517E0,3.4510617E0],"tree_param":{"num_deleted":"0","num_feature":"48","num_nodes":"15","size_leaf_vector":"1"}},{"base_weights":[-2.0405366E-3,1.2529635E-2,-1.7378448E-1,3.1106424E-2,-1.741088E-1,-1.812323E-1,2.6178371E-2,3.0783177E-3,2.0104678E-1,-2.017714E-1,2.2727313E-2,-1.112681E-1,1.0992822E-1],"categories":[],"categories_nodes":[],"categories_segments":[],"categories_sizes":[],"default_left":[0,0,0,0,0,0,0,0,0,0,0,0,0],"id":81,"left_children":[1,3,5,7,9,-1,11,-1,-1,-1,-1,-1,-1],"loss_changes":[2.119884E-1,2.7662194E-1,5.85817E-1,9.5210844E-1,9.517516E-1,0E0,8.764182E-1,0E0,0E0,0E0,0E0,0E0,0E0],"parents":[2147483647,0,0,1,1,2,2,3,3,4,4,6,6],"right_children":[2,4,6,8,10,-1,12,-1,-1,-1,-1,-1,-1],"split_conditions":[1E0,7.228E3,3.38E3,6.742E3,7.763E3,-1.812323E-1,3E0,3.0783177E-3,2.0104678E-1,-2.017714E-1,2.2727313E-2,-1.112681E-1,1.0992822E-1],"split_indices":[14,1,1,1,1,0,2,0,0,0,0,0,0],"split_type":[0,0,0,0,0,0,0,0,0,0,0,0,0],"sum_hessian":[8.2845955E1,7.722176E1,5.6241875E0,7.098928E1,6.232483E0,1.1431059E0,4.4810815E0,6.9730774E1,1.2585142E0,1.5161566E0,4.716326E0,2.026307E0,2.4547741E0],"tree_param":{"num_deleted":"0","num_feature":"48","num_nodes":"13","size_leaf_vector":"1"}},{"base_weights":[-3.6259596E-3,7.114383E-2,-3.8205527E-2,1.5282853E-1,-4.361093E-1,-7.8069754E-2,1.9726667E-1,6.825373E-2,-7.827255E-2,3.9762743E-3,-2.3961522E-1,-5.791083E-2,-4.19415E-3],"categories":[],"categories_nodes":[],"categories_segments":[],"categories_sizes":[],"default_left":[0,0,0,0,0,0,0,0,0,0,0,0,0],"id":82,"left_children":[1,3,5,7,9,11,-1,-1,-1,-1,-1,-1,-1],"loss_changes":[2.1839602E-1,1.1741486E0,1.6514057E0,7.9359275E-1,6.569357E-1,4.0591428E-1,0E0,0E0,0E0,0E0,0E0,0E0,0E0],"parents":[2147483647,0,0,1,1,2,2,3,3,4,4,5,5],"right_children":[2,4,6,8,10,12,-1,-1,-1,-1,-1,-1,-1],"split_conditions":[1E0,1E0,1E0,1E0,1E0,1.82E3,1.9726667E-1,6.825373E-2,-7.827255E-2,3.9762743E-3,-2.3961522E-1,-5.791083E-2,-4.19415E-3],"split_indices":[41,29,20,26,7,1,0,0,0,0,0,0,0],"split_type":[0,0,0,0,0,0,0,0,0,0,0,0,0],"sum_hessian":[8.2418045E1,2.5728693E1,5.668935E1,2.2761969E1,2.966724E0,5.4456985E1,2.2323678E0,1.966274E1,3.0992284E0,1.7551253E0,1.2115988E0,1.8771605E1,3.568538E1],"tree_param":{"num_deleted":"0","num_feature":"48","num_nodes":"13","size_leaf_vector":"1"}},{"base_weights":[-4.2170775E-3,7.745241E-2,-4.26186E-2,1.992609E-1,-3.0206734E-1,-2.3075551E-1,2.0311053E-3,1.9963427E-1,1.3339612E-2,-1.2825042E-2,-2.2524951E-1,1.5866246E-2,-8.5475735E-2],"categories":[],"categories_nodes":[],"categories_segments":[],"categories_sizes":[],"default_left":[0,0,0,0,0,0,0,0,0,0,0,0,0],"id":83,"left_children":[1,3,5,7,9,-1,11,-1,-1,-1,-1,-1,-1],"loss_changes":[2.632644E-1,1.3021355E0,1.8515135E0,1.4815366E0,7.737744E-1,0E0,8.1362635E-1,0E0,0E0,0E0,0E0,0E0,0E0],"parents":[2147483647,0,0,1,1,2,2,3,3,4,4,6,6],"right_children":[2,4,6,8,10,-1,12,-1,-1,-1,-1,-1,-1],"split_conditions":[1.567E3,1E0,1.766E3,1E0,1E0,-2.3075551E-1,1E0,1.9963427E-1,1.3339612E-2,-1.2825042E-2,-2.2524951E-1,1.5866246E-2,-8.5475735E-2],"split_indices":[1,46,1,40,36,0,42,0,0,0,0,0,0],"split_type":[0,0,0,0,0,0,0,0,0,0,0,0,0],"sum_hessian":[8.189038E1,2.586523E1,5.602515E1,1.9940279E1,5.924952E0,2.3041155E0,5.3721035E1,4.1482897E0,1.5791988E1,4.4492354E0,1.4757165E0,4.6326286E1,7.3947477E0],"tree_param":{"num_deleted":"0","num_feature":"48","num_nodes":"13","size_leaf_vector":"1"}},{"base_weights":[-7.444007E-3,5.3030155E-3,-1.844325E-1,6.921824E-2,-3.8731962E-2,7.084303E-2,-4.107677E-1,4.0678795E-2,-1.7428392E-1,-1.3150343E-1,3.2139139E-3,-2.0884164E-1,-1.2036302E-2],"categories":[],"categories_nodes":[],"categories_segments":[],"categories_sizes":[],"default_left":[0,0,0,0,0,0,0,0,0,0,0,0,0],"id":84,"left_children":[1,3,5,7,9,-1,11,-1,-1,-1,-1,-1,-1],"loss_changes":[1.87057E-1,2.2195871E-1,6.2713355E-1,1.4658111E0,9.288205E-1,0E0,3.936447E-1,0E0,0E0,0E0,0E0,0E0,0E0],"parents":[2147483647,0,0,1,1,2,2,3,3,4,4,6,6],"right_children":[2,4,6,8,10,-1,12,-1,-1,-1,-1,-1,-1],"split_conditions":[1E0,3E1,2.108E3,1E0,3.1E1,7.084303E-2,4.042E3,4.0678795E-2,-1.7428392E-1,-1.3150343E-1,3.2139139E-3,-2.0884164E-1,-1.2036302E-2],"split_indices":[39,4,1,30,4,0,1,0,0,0,0,0,0],"split_type":[0,0,0,0,0,0,0,0,0,0,0,0,0],"sum_hessian":[8.147902E1,7.6909874E1,4.5691466E0,3.113974E1,4.5770134E1,1.5834484E0,2.985698E0,2.8973202E1,2.1665385E0,4.173638E0,4.1596493E1,1.1907407E0,1.7949573E0],"tree_param":{"num_deleted":"0","num_feature":"48","num_nodes":"13","size_leaf_vector":"1"}},{"base_weights":[-1.0726457E-2,-1.2046405E-3,-2.2342302E-1,1.0095287E-2,-9.922924E-2,3.9497625E-2,-1.4192082E-1,1.0200807E-2,-4.3368455E-2],"categories":[],"categories_nodes":[],"categories_segments":[],"categories_sizes":[],"default_left":[0,0,0,0,0,0,0,0,0],"id":85,"left_children":[1,3,5,7,-1,-1,-1,-1,-1],"loss_changes":[1.6608359E-1,2.9986215E-1,3.7379494E-1,2.9315183E-1,0E0,0E0,0E0,0E0,0E0],"parents":[2147483647,0,0,1,1,2,2,3,3],"right_children":[2,4,6,8,-1,-1,-1,-1,-1],"split_conditions":[1E0,1E0,1E0,1E0,-9.922924E-2,3.9497625E-2,-1.4192082E-1,1.0200807E-2,-4.3368455E-2],"split_indices":[25,19,11,42,0,0,0,0,0],"split_type":[0,0,0,0,0,0,0,0,0],"sum_hessian":[8.1139046E1,7.86249E1,2.514148E0,7.695561E1,1.6692849E0,1.2330095E0,1.2811385E0,6.732796E1,9.627655E0],"tree_param":{"num_deleted":"0","num_feature":"48","num_nodes":"9","size_leaf_vector":"1"}},{"base_weights":[-1.0482299E-2,6.355292E-2,-4.4509627E-2,1.6336384E-1,-2.6867917E-1,-7.718296E-2,5.290067E-1,-4.051223E-2,9.335084E-2,1.5384069E-1,-1.5321794E-1,-1.6503735E-2,-1.2579666E-1,4.4735245E-2,2.0368363E-1],"categories":[],"categories_nodes":[],"categories_segments":[],"categories_sizes":[],"default_left":[0,0,0,0,0,0,0,0,0,0,0,0,0,0,0],"id":86,"left_children":[1,3,5,7,9,11,13,-1,-1,-1,-1,-1,-1,-1,-1],"loss_changes":[2.0969282E-1,9.1496617E-1,1.1060469E0,9.60385E-1,1.4813282E0,3.9150876E-1,8.0533385E-2,0E0,0E0,0E0,0E0,0E0,0E0,0E0,0E0],"parents":[2147483647,0,0,1,1,2,2,3,3,4,4,5,5,6,6],"right_children":[2,4,6,8,10,12,14,-1,-1,-1,-1,-1,-1,-1,-1],"split_conditions":[1E0,1E0,1E0,2.5E1,1E1,1E0,1.543E3,-4.051223E-2,9.335084E-2,1.5384069E-1,-1.5321794E-1,-1.6503735E-2,-1.2579666E-1,4.4735245E-2,2.0368363E-1],"split_indices":[41,45,20,4,0,14,1,0,0,0,0,0,0,0,0],"split_type":[0,0,0,0,0,0,0,0,0,0,0,0,0,0,0],"sum_hessian":[8.1114334E1,2.5268497E1,5.5845833E1,1.982181E1,5.446689E0,5.3654545E1,2.191288E0,6.5945144E0,1.3227294E1,1.023519E0,4.42317E0,5.147948E1,2.1750646E0,1.1845638E0,1.0067242E0],"tree_param":{"num_deleted":"0","num_feature":"48","num_nodes":"15","size_leaf_vector":"1"}},{"base_weights":[-5.596721E-3,2.2492267E-2,-9.355673E-2,4.44042E-2,-2.730397E-1,1.3363029E-1,-2.1768607E-1,-4.8938226E-2,2.708797E-2,-1.6922691E-1,5.231278E-2,-6.62549E-2,1.13547854E-1,-1.4828882E-1,1.8078577E-2],"categories":[],"categories_nodes":[],"categories_segments":[],"categories_sizes":[],"default_left":[0,0,0,0,0,0,0,0,0,0,0,0,0,0,0],"id":87,"left_children":[1,3,5,7,9,11,13,-1,-1,-1,-1,-1,-1,-1,-1],"loss_changes":[2.0425853E-1,4.189418E-1,5.930436E-1,5.799078E-1,6.812651E-1,7.5067735E-1,1.0532966E0,0E0,0E0,0E0,0E0,0E0,0E0,0E0,0E0],"parents":[2147483647,0,0,1,1,2,2,3,3,4,4,5,5,6,6],"right_children":[2,4,6,8,10,12,14,-1,-1,-1,-1,-1,-1,-1,-1],"split_conditions":[1E0,1E0,1E0,2E0,2E0,4E0,2E0,-4.8938226E-2,2.708797E-2,-1.6922691E-1,5.231278E-2,-6.62549E-2,1.13547854E-1,-1.4828882E-1,1.8078577E-2],"split_indices":[9,35,44,3,5,2,5,0,0,0,0,0,0,0,0],"split_type":[0,0,0,0,0,0,0,0,0,0,0,0,0,0,0],"sum_hessian":[8.082038E1,6.1822414E1,1.8997967E1,5.834614E1,3.476271E0,6.685439E0,1.2312528E1,1.0102608E1,4.8243534E1,1.9481796E0,1.5280913E0,2.7714148E0,3.9140244E0,5.7809906E0,6.5315366E0],"tree_param":{"num_deleted":"0","num_feature":"48","num_nodes":"15","size_leaf_vector":"1"}},{"base_weights":[-7.456478E-3,7.3713968E-3,-1.6777568E-1,4.3152563E-2,-1.23009555E-1,1.8553686E-1,-3.690255E-1,3.9776383E-4,6.555621E-2,-8.700807E-2,5.5828586E-2,-3.1747054E-3,9.114997E-2,-1.9957013E-1,6.956783E-2],"categories":[],"categories_nodes":[],"categories_segments":[],"categories_sizes":[],"default_left":[0,0,0,0,0,0,0,0,0,0,0,0,0,0,0],"id":88,"left_children":[1,3,5,7,9,11,13,-1,-1,-1,-1,-1,-1,-1,-1],"loss_changes":[1.9455586E-1,3.5704252E-1,5.609922E-1,4.390831E-1,9.055573E-1,7.697245E-2,9.993292E-1,0E0,0E0,0E0,0E0,0E0,0E0,0E0,0E0],"parents":[2147483647,0,0,1,1,2,2,3,3,4,4,5,5,6,6],"right_children":[2,4,6,8,10,12,14,-1,-1,-1,-1,-1,-1,-1,-1],"split_conditions":[1E0,1E0,1E0,4.4E1,1E0,1.3E1,1E0,3.9776383E-4,6.555621E-2,-8.700807E-2,5.5828586E-2,-3.1747054E-3,9.114997E-2,-1.9957013E-1,6.956783E-2],"split_indices":[8,13,11,4,7,0,43,0,0,0,0,0,0,0,0],"split_type":[0,0,0,0,0,0,0,0,0,0,0,0,0,0,0],"sum_hessian":[8.032243E1,7.439562E1,5.9268084E0,5.890031E1,1.5495312E1,2.1791635E0,3.747645E0,4.8371006E1,1.0529305E1,1.0099832E1,5.3954797E0,1.1624779E0,